tree
version=v4
num_class=1
num_tree_per_iteration=1
label_index=0
max_feature_idx=4
objective=regression
feature_names=temp_c vpd_kpa heat_index_c wind_speed_mps relative_humidity_percent
feature_infos=[14.035064697265625:51.803131103515625] [0:12.82353401184082] [14.035063743591309:54.496383666992188] [0.016327161341905594:16.115631103515625] [1.9851688146591187:100]
tree_sizes=2889 3017 3028 3021 3022 3030 3038 3032 3045 3043 3051 3052 3060 3054 3058 3070 3059 3061 3066 3065 3070 3060 3066 3068 3064 3082 3076 3086 3077 3080 3082 3096 3083 3085 3093 3099 3099 3104 3091 3094 3106 3098 3091 3104 3105 3095 3108 3111 3113 3124 3118 3130 3123 3111 3118 3120 3128 3129 3120 3132 3132 3145 3141 3137 3157 3143 3144 3152 3150 3165 3156 3152 3150 3175 3135 3153 3150 3161 3146 3144 3158 3148 3147 3146 3154 3148 3160 3149 3129 3148 3158 3149 3161 3154 3154 3156 3157 3142 3152 3151 3156 3141 3144 3142 3140 3151 3166 3150 3165 3144 3131 3146 3161 3165 3175 3160 3142 3142 3155 3140 3159 3157 3136 3151 3122 3127 3147 3144 3149 3163 3172 3131 3126 3154 3147 3107 3141 3136 3133 3115 3136 3108 3145 3137 3112 3130 3128 3105 3133 3120 3110 3134 3121 3132 3119 3154 3109 3155 3158 3141 3134 3131 3139 3172 3130 3133 3142 3157 3149 3091 3128 3139 3121 3150 3148 3168 3137 3178 3121 3142 3155 3124 3097 3130 3138 3158 3172 3105 3150 3114 3106 3135 3149 3128 3135 3144 3111 3123 3146 3108 3130 3157 3161 3134 3129 3134 3154 3096 3126 3111 3087 3114 3140 3105 3116 3140 3117 3123 3123 3134 3111 3117 3146 3121 3132 3106 3124 3133 3106 3145 3118 3098 3088 3111 3110 3110 3131 3126 3113 3117 3141 3146 3107 3134 3099 3134 3107 3127 3138 3117

Tree=0
num_leaves=31
num_cat=0
split_feature=0 1 0 1 1 0 0 3 1 1 3 1 0 1 1 0 3 3 0 1 3 3 3 3 3 0 3 3 3 3
split_gain=8250.63 1480.59 821.636 228.27 179.373 116.712 97.0321 50.0928 28.6344 26.5392 23.8711 20.2942 15.3155 14.946 12.3762 11.4696 10.8361 10.3402 9.92863 9.17261 8.82171 8.49181 7.17875 6.57242 5.73164 5.71794 5.09726 4.39299 4.1432 3.98525
threshold=36.162384033203132 2.972864151000977 40.870880126953132 4.1614565849304208 1.910941004753113 43.709259033203132 38.488189697265632 4.4521634578704843 3.6077672243118291 4.7048285007476816 5.2077462673187265 1.0230376720428469 42.262481689453132 4.0620436668396005 2.476238608360291 45.007843017578132 4.2023067474365243 4.0926263332366952 37.251251220703132 1.3120962381362917 3.839907288551331 4.0706520080566415 4.1787991523742685 5.0894443988800058 4.4294104576110849 39.690948486328132 4.3830590248107919 6.3810992240905771 4.0081620216369638 4.5688049793243417
decision_type=2 2 2 2 2 2 2 2 2 2 2 2 2 2 2 2 2 2 2 2 2 2 2 2 2 2 2 2 2 2
left_child=1 4 6 8 7 12 13 11 17 22 14 -1 24 -2 -6 29 25 -3 28 27 -10 -11 -5 -14 -4 -8 -20 -9 -15 -7
right_child=2 3 5 9 10 15 16 19 20 21 -12 -13 23 18 -16 -17 -18 -19 26 -21 -22 -23 -24 -25 -26 -27 -28 -29 -30 -31
leaf_value=0.52530669972290944 0.54399907966111538 0.53715999735257214 0.55722316939315497 0.54224865656564702 0.53230087506460377 0.56250976864016955 0.55234652154252928 0.52898854187269673 0.53954745208363053 0.54496730488877865 0.53697137970426101 0.52871054742185886 0.56011815296974798 0.5477694950022407 0.53474296151866685 0.56612557879188574 0.55599906235558827 0.53941062840169152 0.5500405719799446 0.5322458846755439 0.54164339435948383 0.54718976146618925 0.54438862438335667 0.56291574573748182 0.55960119107719919 0.5546825767898107 0.55234703420809761 0.5308247118677546 0.54985920399908661 0.5649767614424378
leaf_weight=7227 1169 15812 6202 10114 9506 4238 5434 5322 11685 10742 7225 11258 7549 5539 11502 10534 7227 7549 6481 8139 8808 7166 6397 2980 4390 5121 3823 8767 4164 2841
leaf_count=7227 1169 15812 6202 10114 9506 4238 5434 5322 11685 10742 7225 11258 7549 5539 11502 10534 7227 7549 6481 8139 8808 7166 6397 2980 4390 5121 3823 8767 4164 2841
internal_value=0.543727 0.53677 0.556909 0.541476 0.531427 0.562066 0.551782 0.529303 0.539084 0.544524 0.53449 0.527379 0.559558 0.549495 0.533637 0.565073 0.554505 0.537887 0.549816 0.530904 0.540448 0.545857 0.543078 0.560912 0.55821 0.553481 0.550897 0.53013 0.548667 0.563503
internal_weight=224911 147219 77692 78273 68946 38734 38958 40713 43854 34419 28233 18485 21121 21176 21008 17613 17782 23361 20007 22228 20493 17908 16511 10529 10592 10555 10304 14089 9703 7079
internal_count=224911 147219 77692 78273 68946 38734 38958 40713 43854 34419 28233 18485 21121 21176 21008 17613 17782 23361 20007 22228 20493 17908 16511 10529 10592 10555 10304 14089 9703 7079
is_linear=0
shrinkage=1


Tree=1
num_leaves=31
num_cat=0
split_feature=0 1 0 1 1 0 0 3 1 1 3 1 0 1 0 0 1 1 3 3 3 3 3 3 3 3 3 3 3 0
split_gain=7446.86 1316.11 764.645 204.556 156.257 111.818 86.5193 44.7091 25.6199 24.1091 21.0381 18.8412 14.5149 14.1619 12.8637 11.8796 9.93939 9.07521 9.00844 8.38109 7.59038 7.20563 7.05038 5.69476 5.25906 4.99405 4.72333 4.52613 4.43972 3.86508
threshold=36.075469970703132 2.9441363811492924 40.765167236328132 4.1350717544555673 1.9574021100997927 43.450225830078132 38.171295166015632 4.1369802951812753 3.5651091337203984 4.7352504730224618 5.3593804836273202 1.1423320174217226 44.817169189453132 4.0620436668396005 39.446563720703132 42.025177001953132 1.289971709251404 2.4460781812667851 3.8816453218460087 3.6589173078536992 4.4068586826324472 3.6981291770935063 4.3593170642852792 4.6916372776031503 4.4521634578704843 6.2400043010711679 4.1787991523742685 4.6916372776031503 4.9790592193603525 36.966583251953132
decision_type=2 2 2 2 2 2 2 2 2 2 2 2 2 2 2 2 2 2 2 2 2 2 2 2 2 2 2 2 2 2
left_child=1 4 6 8 7 15 13 11 18 21 17 -1 28 -2 27 26 25 -6 -3 -10 29 -5 -11 -17 -16 -9 -4 -8 -7 -15
right_child=2 3 5 9 10 12 14 16 19 22 -12 -13 -14 20 24 23 -18 -19 -20 -21 -22 -23 -24 -25 -26 -27 -28 -29 -30 -31
leaf_value=-0.017256772212913524 -1.9714029164084801e-05 -0.0064541969410545942 0.012417117746233506 -0.001601446945301341 -0.010800086123783956 0.017556169800629105 0.007758756118911081 -0.014264358481857177 -0.0041887300566303453 0.0012731351834534604 -0.0062559961797264991 -0.013970927285582455 0.02118514591374383 0.0036426013382348829 0.010183675390123865 0.015042138676237797 -0.011010824030766584 -0.0086360491721259435 -0.0043747476041781806 -0.0021984592189727742 0.0068087178598365333 0.00039268739682145581 0.0034497155535358017 0.01751819691502008 0.012590195248697617 -0.012339263326827098 0.014644755007438122 0.010069040768736876 0.020125546115585483 0.0054824533739615804
leaf_weight=8542 1271 14148 5212 9165 8339 5385 6633 5580 11400 10709 6468 9009 11394 5108 6266 6968 9714 11670 8260 9876 6501 8956 5702 3575 3611 8799 4502 3144 2553 6501
leaf_count=8542 1271 14148 5212 9165 8339 5385 6633 5580 11400 10709 6468 9009 11394 5108 6266 6968 9714 11670 8260 9876 6501 8956 5702 3575 3611 8799 4502 3144 2553 6501
internal_value=8.29344e-06 -0.00665982 0.0124191 -0.00223459 -0.0117407 0.0173153 0.00745306 -0.0136503 -0.00450796 0.000641341 -0.00873684 -0.015571 0.0200364 0.00508215 0.00979067 0.0147176 -0.0122506 -0.00953843 -0.0056879 -0.00326502 0.00544019 -0.000615912 0.00202955 0.0158833 0.0110647 -0.0130873 0.0134509 0.00850263 0.018385 0.0046733
internal_weight=224961 146337 78624 78216 68121 39589 39035 41644 43684 34532 26477 17551 19332 19381 19654 20257 24093 20009 22408 21276 18110 18121 16411 10543 9877 14379 9714 9777 7938 11609
internal_count=224961 146337 78624 78216 68121 39589 39035 41644 43684 34532 26477 17551 19332 19381 19654 20257 24093 20009 22408 21276 18110 18121 16411 10543 9877 14379 9714 9777 7938 11609
is_linear=0
shrinkage=0.05


Tree=2
num_leaves=31
num_cat=0
split_feature=0 1 0 1 1 0 0 3 1 1 3 1 1 0 0 0 1 3 3 3 3 1 3 3 3 3 3 3 3 1
split_gain=6727.48 1169.35 713.189 183.953 133.853 107.664 76.88 41.9537 23.8337 22.2819 20.2286 15.0941 13.5229 13.0259 12.1454 11.4041 10.6506 8.12514 7.41189 7.28117 6.65889 6.3159 5.81822 5.19083 5.11791 4.75295 3.97347 3.70468 3.50882 3.34698
threshold=35.996978759765632 2.9144393205642705 40.648590087890632 4.0860905647277841 1.8234138488769533 43.450225830078132 38.061920166015632 4.5688049793243417 4.6208777427673349 3.4806423187255864 5.5290806293487558 0.94855499267578136 3.9851927757263188 44.817169189453132 42.025177001953132 39.208770751953132 2.3833847045898442 3.9246349334716801 4.2893874645233163 4.4521634578704843 3.9444128274917607 1.2036076784133913 3.5983618497848515 5.3593804836273202 4.2023067474365243 4.6916372776031503 5.2963955402374276 4.9257543087005624 2.9927210807800297 1.4170812368392947
decision_type=2 2 2 2 2 2 2 2 2 2 2 2 2 2 2 2 2 2 2 2 2 2 2 2 2 2 2 2 2 2
left_child=1 4 6 9 7 14 12 11 22 18 16 -1 -2 26 25 27 -6 -11 -3 -10 -14 -9 -5 -16 -17 -4 -7 -8 -18 -13
right_child=2 3 5 8 10 13 15 21 19 17 -12 29 20 -15 23 24 28 -19 -20 -21 -22 -23 -24 -25 -26 -27 -28 -29 -30 -31
leaf_value=-0.016881591986933283 -0.00043272547229433224 -0.006265225661584696 0.01187721175768479 -0.0019208835936737733 -0.01059758442127628 0.016754543171210067 0.0070823089684613457 -0.012424466451558695 0.00095022105639937227 -0.004137334070929667 -0.0061332759534729782 -0.014522409040116964 0.0041256346452418187 0.020123075167582313 0.014450964190031302 0.0092824717858805087 -0.0091922353549793254 -0.0022188342965231197 -0.0041117788802985727 0.0030293779509182753 0.0060511357880555184 -0.010684086944614871 -4.1997302652723261e-05 0.017063146067925396 0.011520418295008697 0.014091528727986011 0.019283967718863072 0.009336822173809314 -0.0075015154454642274 -0.01278997493278056
leaf_weight=6201 1229 14283 6765 8026 9329 5673 6184 10971 12646 13923 6472 7114 10066 11468 7976 6387 6252 9150 5560 6313 8126 10093 8466 2554 4314 3855 2228 2606 6120 4758
leaf_count=6201 1229 14283 6765 8026 9329 5673 6184 10971 12646 13923 6472 7114 10066 11468 7976 6387 6252 9150 5560 6313 8126 10093 8466 2554 4314 3855 2228 2606 6120 4758
internal_value=-8.52946e-07 -0.00638348 0.0117049 -0.00223178 -0.0112171 0.0163477 0.00686995 -0.013109 0.000433556 -0.00443346 -0.00858849 -0.0148774 0.00464309 0.0190419 0.0138797 0.00908846 -0.0093204 -0.00337665 -0.00566207 0.00164267 0.004986 -0.0115911 -0.000956438 0.0150861 0.0101857 0.0126822 0.0174702 0.0077517 -0.00835657 -0.0138292
internal_weight=225108 145677 79431 78367 67310 40519 38912 39137 35451 42916 28173 18073 19421 19369 21150 19491 21701 23073 19843 18959 18192 21064 16492 10530 10701 10620 7901 8790 12372 11872
internal_count=225108 145677 79431 78367 67310 40519 38912 39137 35451 42916 28173 18073 19421 19369 21150 19491 21701 23073 19843 18959 18192 21064 16492 10530 10701 10620 7901 8790 12372 11872
is_linear=0
shrinkage=0.05


Tree=3
num_leaves=31
num_cat=0
split_feature=0 1 0 1 1 0 0 3 1 3 1 1 0 0 1 0 3 3 3 1 1 3 3 3 3 3 3 1 0 3
split_gain=6059.1 1111.42 581.375 164.361 143.982 80.3816 71.7741 36.8538 22.7035 18.06 17.0247 16.2624 10.4069 10.1911 9.12859 8.52242 8.30127 8.05825 6.84356 6.63158 6.26756 6.17375 5.89231 5.63657 4.95352 4.63118 4.26976 3.78137 3.64582 3.60426
threshold=36.248931884765632 3.0294803380966191 40.982574462890632 4.238053798675538 2.000700950622559 43.709259033203132 38.598175048828132 4.0706520080566415 3.6724005937576298 3.677659392356873 4.8525147438049325 1.1832568645477297 37.439971923828132 42.501739501953132 1.3614940643310549 45.186065673828132 3.7371766567230229 4.4987244606018075 4.3357231616973886 4.238053798675538 2.5649857521057133 4.6173307895660409 6.6887049674987802 3.5983618497848515 6.4283068180084237 4.1154592037200937 4.3357231616973886 0.68839734792709362 39.814971923828132 5.0333178043365487
decision_type=2 2 2 2 2 2 2 2 2 2 2 2 2 2 2 2 2 2 2 2 2 2 2 2 2 2 2 2 2 2
left_child=1 4 6 8 7 13 12 11 17 20 21 27 19 25 24 -7 -8 -3 -10 -2 -6 -5 -11 -12 -9 -4 -15 -1 -18 -14
right_child=2 3 5 10 9 15 16 14 18 22 23 -13 29 26 -16 -17 28 -19 -20 -21 -22 -23 -24 -25 -26 -27 -28 -29 -30 -31
leaf_value=-0.017052417321080187 0.00030079906330834579 -0.0053025543532648368 0.011734882260280209 -0.00071226576160923955 -0.0099073210887781413 0.01708199444712381 0.0083850270658896754 -0.012703840726001335 -0.003143923984332336 -0.0070269430262785496 0.0012467474499952612 -0.012487315931548811 0.0057458086667265826 0.014033603468786829 -0.0096864014814828595 0.019318290217779577 0.0094682100346831621 -0.0031963030568073559 -0.0011887968301746016 0.0045030186268265127 -0.0078631533949381684 0.0013029129909668674 -0.0047456445093768569 0.0032062990993731604 -0.010950149764757472 0.013763636312798892 0.016292435393762076 -0.014812147854729977 0.011518151202770879 0.0078949500724072863
leaf_weight=2842 1032 18118 6049 12558 7253 7878 9014 7208 13816 9034 7621 8759 6943 5207 8414 9599 4171 6068 6623 10418 7842 5449 4137 7081 9353 5395 3620 6025 4633 2729
leaf_count=2842 1032 18118 6049 12558 7253 7878 9014 7208 13816 9034 7621 8759 6943 5207 8414 9599 4171 6068 6623 10418 7842 5449 4137 7081 9353 5395 3620 6025 4633 2729
internal_value=-5.32632e-06 -0.00590907 0.0114037 -0.00176407 -0.0104322 0.0158254 0.00711711 -0.0122681 -0.0037375 -0.00766492 0.000928317 -0.0140198 0.00514509 0.0136813 -0.0110314 0.0183113 0.00945437 -0.00477427 -0.00251048 0.00412433 -0.00884595 -0.000102425 -0.0063108 0.00219069 -0.0117141 0.0126924 0.0149617 -0.015532 0.0105482 0.00635295
internal_weight=224889 148201 76688 77334 70867 37748 38940 42601 44625 28266 32709 17626 21122 20271 24975 17477 17818 24186 20439 11450 15095 18007 13171 14702 16561 11444 8827 8867 8804 9672
internal_count=224889 148201 76688 77334 70867 37748 38940 42601 44625 28266 32709 17626 21122 20271 24975 17477 17818 24186 20439 11450 15095 18007 13171 14702 16561 11444 8827 8867 8804 9672
is_linear=0
shrinkage=0.05


Tree=4
num_leaves=31
num_cat=0
split_feature=0 1 0 1 1 0 0 3 1 1 3 0 1 1 0 0 1 3 3 3 3 3 3 3 1 3 3 3 3 3
split_gain=5476.02 935.563 599.855 153.137 100.376 92.7643 61.5683 33.9951 20.7619 18.318 17.7788 12.2976 11.796 11.4796 10.3145 9.86096 9.6808 7.21922 6.39009 6.2315 5.5024 5.16992 4.63852 4.2738 4.01886 3.80954 3.72951 3.6374 3.58482 3.42334
threshold=35.908721923828132 2.8545536994934086 40.521026611328132 4.0361006259918222 1.6612712144851687 43.324249267578132 37.847686767578132 4.6173307895660409 4.592384099960328 3.3946511745452885 5.984682798385621 44.635894775390632 3.9391885995864873 2.2831468582153325 39.080230712890632 41.774200439453132 0.88610494136810314 3.5186223983764653 3.4791984558105473 3.4791984558105473 3.7983883619308476 3.2883533239364628 5.7827610969543466 4.6173307895660409 2.2437348365783696 6.6333992481231698 5.4593000411987314 2.7066148519515996 4.8994269371032724 4.3593170642852792
decision_type=2 2 2 2 2 2 2 2 2 2 2 2 2 2 2 2 2 2 2 2 2 2 2 2 2 2 2 2 2 2
left_child=1 4 6 9 7 15 12 16 21 18 13 26 -2 -6 29 28 -1 -11 -3 -10 -14 -5 -17 -16 -12 -9 -7 -15 -4 -8
right_child=2 3 5 8 10 11 14 25 19 17 24 -13 20 27 23 22 -18 -19 -20 -21 -22 -23 -24 -25 -26 -27 -28 -29 -30 -31
leaf_value=-0.015470278400002035 -0.00070590079813770325 -0.0062850528735070386 0.01049713852130555 -0.0020468218095626182 -0.0099700978444439946 0.014888165026765885 0.0059970703707578985 -0.011415746613677434 0.00043318201494738805 -0.0041277066206973452 -0.0071658002260191729 0.018077713419111262 0.0034172524074828855 -0.008707077013694357 0.0082880330212716357 0.012850059549251815 -0.012863335666261459 -0.0024154084140519416 -0.0044018656568742473 0.0022443080136040645 0.0052062182914335772 -0.0002941862228223065 0.015426567531375722 0.010429817322317906 -0.0045920910349566144 -0.0099844783654970508 0.017399504063386955 -0.0070379455390619829 0.01256104795633335 0.00794245334239067
leaf_weight=5343 1277 9502 6534 7182 10468 5861 6024 8336 9165 12676 2702 12337 8990 5770 7176 9222 10926 11979 8593 9858 8255 10159 2195 3486 3481 10794 2045 7628 3166 3650
leaf_count=5343 1277 9502 6534 7182 10468 5861 6024 8336 9165 12676 2702 12337 8990 5770 7176 9222 10926 11979 8593 9858 8255 10159 2195 3486 3481 10794 2045 7628 3166 3650
internal_value=8.85338e-07 -0.00581253 0.0104773 -0.002154 -0.0102349 0.0146681 0.00601629 -0.0120392 0.000231154 -0.00418283 -0.00810904 0.0170874 0.00393051 -0.00872829 0.00791573 0.0123484 -0.0137204 -0.00329589 -0.00539105 0.0013718 0.00427386 -0.00102014 0.0133467 0.00898921 -0.00571779 -0.0106087 0.0155399 -0.00775737 0.011172 0.00673181
internal_weight=224780 144562 80218 79114 65448 41360 38858 35399 36364 42750 30049 20243 18522 23866 20336 21117 16269 24655 18095 19023 17245 17341 11417 10662 6183 19130 7906 13398 9700 9674
internal_count=224780 144562 80218 79114 65448 41360 38858 35399 36364 42750 30049 20243 18522 23866 20336 21117 16269 24655 18095 19023 17245 17341 11417 10662 6183 19130 7906 13398 9700 9674
is_linear=0
shrinkage=0.05


Tree=5
num_leaves=31
num_cat=0
split_feature=0 1 0 1 1 0 0 3 1 3 1 1 0 0 1 3 3 3 1 3 3 1 0 3 3 3 3 3 1 1
split_gain=4951.88 905.234 475.123 127.27 126.685 62.7059 62.5191 30.5001 17.7844 15.7014 13.2362 13.0267 9.86127 9.80767 8.33455 7.1942 7.0236 5.49184 5.39294 5.31342 5.02493 4.86583 4.672 4.46812 4.14057 4.08339 3.88883 3.79026 3.69162 3.28623
threshold=36.248931884765632 3.0843697786331181 41.097686767578132 4.2635052204132089 2.000700950622559 38.717559814453132 43.978546142578132 3.9444128274917607 3.7595540285110478 3.4211323261260991 1.2453891038894656 4.8828029632568368 42.619171142578132 37.251251220703132 1.2453891038894656 4.4521634578704843 3.5390629768371586 6.4759190082550058 2.6229820251464848 4.6666653156280526 3.2286769151687627 4.3157885074615487 45.186065673828132 4.7696340084075937 5.9442577362060556 3.7182892560958867 5.327646255493165 6.0644302368164071 2.5649857521057133 0.63513612747192394
decision_type=2 2 2 2 2 2 2 2 2 2 2 2 2 2 2 2 2 2 2 2 2 2 2 2 2 2 2 2 2 2
left_child=1 4 5 8 7 13 12 10 15 18 29 19 25 21 27 -3 -7 28 -6 -5 -10 -2 -8 -13 -14 -4 -15 -9 -11 -1
right_child=2 3 6 11 9 16 22 14 20 17 -12 23 24 26 -16 -17 -18 -19 -20 -21 -22 -23 -24 -25 -26 -27 -28 -29 -30 -31
leaf_value=-0.015633963851958348 0.00017096546591216153 -0.0045860595199818284 0.010578509972444201 -0.00055309615748415819 -0.0089464924857763951 0.0076425292336779332 0.015672301545823226 -0.011895884863475484 -0.0030255015986608569 -0.0073798376252921698 -0.011179718740302902 0.0014971484339816627 0.013271677606988819 0.0051561314373442194 -0.0090087428188887746 -0.0026820931202743543 0.0096385844784125114 -0.0042652300507569638 -0.0070171234570654819 0.0013363220538651769 -0.0013287692040280981 0.0039082431727214834 0.017452394425454595 0.0035059004843512849 0.015916136306610384 0.012477596329023575 0.0072242509802205581 -0.010174232097238552 -0.0055180258514137982 -0.013440694687274261
leaf_weight=2332 968 19171 5267 12567 7514 8214 6204 5191 7537 4759 7668 10152 7790 9351 11798 6701 9596 4564 7055 5285 10369 8693 9636 3807 1868 6294 3015 8591 6101 6979
leaf_count=2332 968 19171 5267 12567 7514 8214 6204 5191 7537 4759 7668 10152 7790 9351 11798 6701 9596 4564 7055 5285 10369 8693 9636 3807 1868 6294 3015 8591 6101 6979
internal_value=8.68637e-06 -0.00533501 0.0103033 -0.00150577 -0.00932446 0.00651231 0.0143782 -0.0110785 -0.00325464 -0.00683522 -0.0127225 0.000901028 0.0126023 0.00472818 -0.00998689 -0.00409304 0.00871848 -0.00572252 -0.00801275 6.30067e-06 -0.00204309 0.00353384 0.0167562 0.0020452 0.0137847 0.0116134 0.00566091 -0.0108235 -0.0063345 -0.0139916
internal_weight=225037 148141 76896 75589 72552 39837 37059 42559 43778 29993 16979 31811 21219 22027 25580 25872 17810 15424 14569 17852 17906 9661 15840 13959 9658 11561 12366 13782 10860 9311
internal_count=225037 148141 76896 75589 72552 39837 37059 42559 43778 29993 16979 31811 21219 22027 25580 25872 17810 15424 14569 17852 17906 9661 15840 13959 9658 11561 12366 13782 10860 9311
is_linear=0
shrinkage=0.05


Tree=6
num_leaves=31
num_cat=0
split_feature=0 1 0 1 0 1 0 3 1 3 1 1 0 0 1 0 1 3 3 3 3 3 1 3 3 3 3 3 1 3
split_gain=4455.51 748.363 503.674 127.407 79.4455 75.0017 48.9161 27.7455 19.005 14.7317 14.4202 10.2362 10.0648 8.99524 8.21751 7.93452 7.77477 5.60646 5.60124 5.40368 4.90759 4.59979 4.56919 4.01423 3.69843 3.47726 3.36298 3.22793 2.91753 2.582
threshold=35.820831298828132 2.7978231906890874 40.406158447265632 3.9617861509323125 43.324249267578132 1.6203365325927737 37.743072509765632 4.9257543087005624 4.5364220142364511 5.0894443988800058 3.3514478206634526 4.238053798675538 44.817169189453132 41.774200439453132 0.81002032756805431 39.080230712890632 2.2437348365783696 3.34558117389679 4.8473906517028817 3.8609764575958256 5.1471135616302499 3.0127414464950566 2.204665064811707 3.8816453218460087 4.1582450866699228 5.327646255493165 5.17779564857483 5.4269068241119394 1.0848516225814822 2.3955122232437138
decision_type=2 2 2 2 2 2 2 2 2 2 2 2 2 2 2 2 2 2 2 2 2 2 2 2 2 2 2 2 2 2
left_child=1 5 6 10 13 7 11 14 21 16 18 -2 24 25 -1 27 -7 -12 29 -10 -13 -5 -11 -15 -6 -4 -17 -8 -9 -3
right_child=2 3 4 8 12 9 15 28 19 22 17 20 -14 23 -16 26 -18 -19 -20 -21 -22 -23 -24 -25 -26 -27 -28 -29 -30 -31
leaf_value=-0.014200039071666599 -0.00012809919803223946 -0.0064408165819164953 0.0095006870249787941 -0.002212117998678017 0.013170478950372228 -0.0092990888366537381 0.0055257548762125833 -0.010310281831147947 0.00036219997282216658 -0.0069973509603451934 -0.0039785163882651211 0.0033213558360391119 0.016406095709624133 0.011086490974136285 -0.01169251320700926 0.0074548228177165375 -0.0073312766666078361 -0.0024390861188259582 -0.0033141802800618911 0.0020215624094274509 0.0053385669920147641 -0.00055403021377776833 -0.0047079877844031573 0.012975139917222876 0.015245172998249908 0.011604340677959747 0.0096219325917464588 0.0075945649467743757 -0.0089847339667797326 -0.0050136802529065182
leaf_weight=4466 1843 4778 7997 6510 4687 9059 8141 6993 11229 4030 11200 12781 11347 5598 12508 7391 11342 12549 3734 8713 3951 11700 4774 5821 4125 2643 2385 2467 10529 9540
leaf_count=4466 1843 4778 7997 6510 4687 9059 8141 6993 11229 4030 11200 12781 11347 5598 12508 7391 11342 12549 3734 8713 3951 11700 4774 5821 4125 2643 2385 2467 10529 9540
internal_value=1.50596e-06 -0.00528961 0.00936482 -0.00206833 0.0131482 -0.00933264 0.00526472 -0.0109115 2.09051e-05 -0.00746749 -0.00397513 0.00340845 0.0154177 0.0110736 -0.0123531 0.006956 -0.00820549 -0.00316522 -0.00504042 0.00108727 0.00379798 -0.00114688 -0.00575661 0.0120503 0.0141433 0.0100243 0.00798445 0.00600755 -0.00951432 -0.00549034
internal_weight=224831 143654 81177 79953 42218 63701 38959 34496 38152 29205 41801 18575 20159 22059 16974 20384 20401 23749 18052 19942 16732 18210 8804 11419 8812 10640 9776 10608 17522 14318
internal_count=224831 143654 81177 79953 42218 63701 38959 34496 38152 29205 41801 18575 20159 22059 16974 20384 20401 23749 18052 19942 16732 18210 8804 11419 8812 10640 9776 10608 17522 14318
is_linear=0
shrinkage=0.05


Tree=7
num_leaves=31
num_cat=0
split_feature=0 1 0 1 1 0 0 3 1 3 1 0 1 0 0 3 3 1 3 3 3 3 3 3 1 3 3 3 1 3
split_gain=4019.2 763.377 362.788 110.807 105.042 47.8416 47.7188 25.3862 14.8421 12.9518 12.1924 11.2933 8.5407 7.99041 6.75976 5.96505 5.89279 5.53651 5.0607 4.70538 4.30184 3.6147 3.55533 3.51033 3.46529 3.06943 2.93251 2.87617 2.84915 2.80469
threshold=36.424346923828132 3.1386258602142338 41.217071533203132 2.0864558219909672 4.3157885074615487 38.836822509765632 44.126495361328132 3.7575598955154423 3.7806303501129155 4.1787991523742685 1.3120962381362917 35.232452392578132 1.3887145519256594 42.739288330078132 37.540313720703132 3.8179588317871098 4.6173307895660409 2.6517958641052251 5.0615010261535653 4.4752376079559335 6.4759190082550058 4.8216118812561044 5.5290806293487558 3.6589173078536992 4.5364220142364511 6.9188895225524911 3.4791984558105473 3.3256119489669804 0.73431849479675304 3.6389260292053227
decision_type=2 2 2 2 2 2 2 2 2 2 2 2 2 2 2 2 2 2 2 2 2 2 2 2 2 2 2 2 2 2
left_child=1 3 5 7 8 14 13 10 16 17 28 18 20 22 24 -7 -3 -5 -6 -10 -9 -15 -4 -8 -2 -11 -26 -13 -1 -16
right_child=2 4 6 9 11 15 23 12 19 25 -12 27 -14 21 29 -17 -18 -19 -20 -21 -22 -23 -24 -25 26 -27 -28 -29 -30 -31
leaf_value=-0.013883401976783956 0.00096973669600531037 -0.0039955527436643023 0.010170818158040617 -0.0076782699687172433 -5.7873009939259139e-05 0.007131814983122254 0.013901407711616982 -0.010414967256649491 -0.0022399436692524025 -0.0052334097971654878 -0.0099254337547496144 0.0014273973369606835 -0.0077337575110302875 0.011925358992676403 0.0045881498722965776 0.0089703872973795045 -0.00218049907166198 -0.0059685619247943503 0.0017821538229630517 -0.00052498995788854475 -0.0088627583328594797 0.014020847442197401 0.012320980771358713 0.015685648366583701 0.0029980040997188008 -0.003480531969349423 0.0047574368842576925 0.0031229862680455861 -0.012017985463170362 0.0062202503174765668
leaf_weight=3110 1109 19222 8928 9018 16712 9102 3787 8656 13077 7210 7478 4472 9215 6449 5299 8631 5833 10038 4812 5763 9379 3100 2489 11182 4510 3836 5007 5682 6393 5272
leaf_count=3110 1109 19222 8928 9018 16712 9102 3787 8656 13077 7210 7478 4472 9215 6449 5299 8631 5833 10038 4812 5763 9379 3100 2489 11182 4510 3836 5007 5682 6393 5272
internal_value=-5.97864e-06 -0.00473095 0.009455 -0.00832859 -0.00119227 0.0061107 0.0130778 -0.00992123 -0.00277582 -0.00598816 -0.0114396 0.00100202 -0.00897469 0.0115368 0.00450713 0.00802714 -0.0035731 -0.00677802 0.000353555 -0.00171541 -0.00960829 0.012607 0.0106406 0.0152352 0.00361585 -0.00462505 0.00392406 0.00237643 -0.0126299 0.00540263
internal_weight=224771 149906 74865 74333 75573 38930 35935 44231 43895 30102 16981 31678 27250 20966 21197 17733 25055 19056 21524 18840 18035 9549 11417 14969 10626 11046 9517 10154 9503 10571
internal_count=224771 149906 74865 74333 75573 38930 35935 44231 43895 30102 16981 31678 27250 20966 21197 17733 25055 19056 21524 18840 18035 9549 11417 14969 10626 11046 9517 10154 9503 10571
is_linear=0
shrinkage=0.05


Tree=8
num_leaves=31
num_cat=0
split_feature=0 1 0 1 0 1 0 3 1 1 3 0 1 0 1 0 3 3 3 3 3 1 3 3 3 3 3 3 3 3
split_gain=3641.18 600.038 423.569 105.768 68.305 55.682 38.725 22.714 15.4253 12.5155 12.279 9.65417 9.04346 7.11722 6.59243 6.06694 5.33998 4.92746 4.8837 4.75635 4.08672 3.83756 3.76091 3.50485 3.24953 3.14222 3.05393 2.93303 2.84122 2.5517
threshold=35.734893798828132 2.7398645877838139 40.293853759765632 3.9391885995864873 43.201446533203132 1.5828404426574709 37.642852783203132 3.6589173078536992 4.48093605041504 3.3292845487594609 7.3030195236206064 44.635894775390632 3.7806303501129155 41.662872314453132 2.2437348365783696 39.208770751953132 5.0058720111846933 6.1081728935241708 2.9927210807800297 3.1308588981628422 4.9530565738677987 0.91963148117065441 2.9329038858413701 5.8605122566223153 2.6845183372497563 5.7827610969543466 5.6352910995483407 5.2660069465637216 2.9543582201004033 2.5336697101593022
decision_type=2 2 2 2 2 2 2 2 2 2 2 2 2 2 2 2 2 2 2 2 2 2 2 2 2 2 2 2 2 2
left_child=1 5 6 9 13 7 12 21 22 16 14 25 -2 27 24 26 29 -9 -10 -11 -14 -1 -5 -15 -7 -6 -8 -4 -16 -3
right_child=2 3 4 8 11 10 15 17 18 19 -12 -13 20 23 28 -17 -18 -19 -20 -21 -22 -23 -24 -25 -26 -27 -28 -29 -30 -31
leaf_value=-0.012774875538922868 -0.0012193236216145676 -0.0059173152245080244 0.0084359387567840994 -0.0021882953502838491 0.012063924760583981 -0.0091507354358869222 0.0050112413728529868 -0.0098228589261876321 -0.0001558901984726054 -0.0037622482310392946 -0.0043488074490909316 0.014749818322142408 0.0027707114440423649 0.010302196121800319 -0.0073258318229499604 0.0071837381139503486 -0.0029530281182420649 -0.0083090080660111077 0.0014341772895270629 -0.0023308212356449452 0.0044950195950711185 -0.01091583360582301 -0.00063837887295522828 0.012555704339440213 -0.0074767045971731215 0.014356018493370135 0.0069505977520242295 0.010343008472396838 -0.0057752521635517987 -0.0045720853454502344
leaf_weight=4857 1214 5591 7921 5962 6877 4808 9780 9485 7642 9984 4073 12268 12525 9238 5457 8022 3726 12591 13117 13880 4741 6696 11394 2155 7449 1959 2573 2743 6523 9641
leaf_count=4857 1214 5591 7921 5962 6877 4808 9780 9485 7642 9984 4073 12268 12525 9238 5457 8022 3726 12591 13117 13880 4741 6696 11394 2155 7449 1959 2573 2743 6523 9641
internal_value=-1.04564e-06 -0.00482133 0.0083961 -0.00198672 0.0118053 -0.0085253 0.00460883 -0.00990099 -7.08643e-05 -0.00369194 -0.00689084 0.0138393 0.00295113 0.00985868 -0.00731783 0.00611214 -0.00465107 -0.00895985 0.000848847 -0.00292982 0.00324442 -0.0116984 -0.00117089 0.0107295 -0.00813406 0.0125737 0.00541572 0.0089274 -0.00648211 -0.00506622
internal_weight=224892 142876 82016 80937 43161 61939 38855 33629 38115 42822 28310 21104 18480 22057 24237 20375 18958 22076 20759 23864 17266 11553 17356 11393 12257 8836 12353 10664 11980 15232
internal_count=224892 142876 82016 80937 43161 61939 38855 33629 38115 42822 28310 21104 18480 22057 24237 20375 18958 22076 20759 23864 17266 11553 17356 11393 12257 8836 12353 10664 11980 15232
is_linear=0
shrinkage=0.05


Tree=9
num_leaves=31
num_cat=0
split_feature=0 1 0 1 1 0 0 3 1 3 1 0 3 0 3 3 3 3 1 1 0 3 1 3 1 3 3 3 3 0
split_gain=3284.71 622.803 295.671 88.1447 87.3389 41.7213 36.2889 21.2558 13.7192 12.5635 9.17121 8.74637 6.1794 6.03756 5.39927 4.84873 4.83077 4.74423 4.65572 4.48689 4.40442 4.12478 4.00134 3.09018 2.99508 2.7694 2.66199 2.55005 2.53769 2.43866
threshold=36.424346923828132 3.1117231845855717 41.331573486328132 4.3430950641632089 1.8675603866577151 38.960601806640632 44.126495361328132 4.8728950023651132 3.71577000617981 3.1308588981628422 0.99932861328125011 35.151153564453132 6.1537237167358407 37.540313720703132 3.382876038551331 5.1185128688812265 4.8216118812561044 7.7103569507598886 2.5376266241073613 2.5065125226974492 42.619171142578132 4.1154592037200937 1.1832568645477297 3.6589173078536992 4.5364220142364511 3.5186223983764653 4.2893874645233163 2.2486016750335698 3.2092214822769169 40.054473876953132
decision_type=2 2 2 2 2 2 2 2 2 2 2 2 2 2 2 2 2 2 2 2 2 2 2 2 2 2 2 2 2 2
left_child=1 4 5 8 7 13 12 10 15 19 -1 21 20 24 -7 27 -10 18 -11 -6 -4 -5 -9 -8 -2 -15 -13 -3 -26 -16
right_child=2 3 6 11 9 14 23 22 16 17 -12 26 -14 25 29 -17 -18 -19 -20 -21 -22 -23 -24 -25 28 -27 -28 -29 -30 -31
leaf_value=-0.011704512414468434 0.00083357403275917158 -0.004659452634253383 0.0092713380501803656 -0.00024869486467295079 -0.00778223402233039 0.0063786940007311017 0.012496213985088029 -0.0087066827107980995 -0.002023933855994441 -0.0061850753775593813 -0.0094792358703522563 0.0015063417951569156 0.01247595351284608 0.00412678443565911 0.0072303302698494554 -0.0017317628763841263 -0.00027058769877528446 -0.0031791576799741665 -0.0044524478698715854 -0.0060054425293670152 0.010897795450441439 0.0012170128187535606 -0.0072799552605110722 0.014173982671029057 0.0025935782846639045 0.0056821005790949038 0.0031414569376759962 -0.0033431448478444762 0.0042560697515952794 0.0087994178560987183
leaf_weight=7324 1116 4929 8166 12107 6459 7553 3753 9713 17027 6962 12744 6886 3324 5502 4307 3843 5107 3490 8794 7968 8650 7952 10074 11200 3906 6007 3901 14625 5591 5974
leaf_count=7324 1116 4929 8166 12107 6459 7553 3753 9713 17027 6962 12744 6886 3324 5502 4307 3843 5107 3490 8794 7968 8650 7952 10074 11200 3906 6007 3901 14625 5591 5974
internal_value=-9.91619e-07 -0.00427599 0.00853795 -0.00111381 -0.00756063 0.00559655 0.0118867 -0.00914469 -0.00251187 -0.00568554 -0.0102919 0.000949844 0.0104999 0.00414555 0.0073961 -0.00335605 -0.00161941 -0.00484878 -0.00521838 -0.0068014 0.0101086 0.000332388 -0.00798071 0.0137537 0.00328473 0.00493899 0.0020979 -0.00367517 0.00357265 0.00814285
internal_weight=224954 149905 75049 76377 73528 39956 35093 39855 45531 33673 20068 30846 20140 22122 17834 23397 22134 19246 15756 14427 16816 20059 19787 14953 10613 11509 10787 19554 9497 10281
internal_count=224954 149905 75049 76377 73528 39956 35093 39855 45531 33673 20068 30846 20140 22122 17834 23397 22134 19246 15756 14427 16816 20059 19787 14953 10613 11509 10787 19554 9497 10281
is_linear=0
shrinkage=0.05


Tree=10
num_leaves=31
num_cat=0
split_feature=0 1 0 1 0 1 0 3 1 3 1 1 0 0 1 0 3 3 3 3 3 3 3 3 3 1 3 3 3 1
split_gain=2967.65 481.454 357.012 83.5354 53.0321 45.8197 35.737 18.2339 12.735 10.518 9.64379 8.20983 6.72142 6.25371 6.22177 5.29185 4.39655 4.11996 4.09892 3.87309 3.81827 3.64315 3.15181 3.11816 2.9438 2.91703 2.90558 2.78315 2.54127 2.35044
threshold=35.644073486328132 2.7398645877838139 40.406158447265632 3.9168231487274174 43.450225830078132 1.5104413628578188 37.743072509765632 3.6589173078536992 4.5641016960144052 7.3794679641723642 3.3292845487594609 4.5094413757324228 42.142608642578132 45.186065673828132 2.204665064811707 39.329132080078132 3.3256119489669804 4.8473906517028817 6.7466571331024179 2.8513411283493046 3.2092214822769169 3.1501656770706181 4.4068586826324472 4.8728950023651132 2.5336697101593022 0.77114808559417736 3.1308588981628422 3.6389260292053227 2.5336697101593022 0.91963148117065441
decision_type=2 2 2 2 2 2 2 2 2 2 2 2 2 2 2 2 2 2 2 2 2 2 2 2 2 2 2 2 2 2
left_child=1 5 6 10 12 7 11 25 19 14 16 -2 23 22 24 26 -3 -13 29 -5 -12 -10 -6 -4 -7 -1 -8 -14 -16 -9
right_child=2 3 4 8 13 9 15 18 21 -11 20 17 27 -15 28 -17 -18 -19 -20 -21 -22 -23 -24 -25 -26 -27 -28 -29 -30 -31
leaf_value=-0.011893425875980603 0.00010616556139725062 -0.0049978919489769014 0.0078384809157160101 -0.0019671389970571571 0.010955446159374207 -0.0084692476514833595 0.0040550132712748764 -0.010278490912331635 -2.1504658084392294e-05 -0.0039828381054283751 -0.0034140024436029523 0.0026108951684768482 0.0091411690616321969 0.013559325999072815 -0.0068103127626235049 0.0066518797337999569 -0.0034689123582267467 0.0043286735536379089 -0.0073836885153624457 -0.00050517209558067371 -0.0021110615781867363 0.0014383639011563817 0.012788766703835251 0.0094801602007547094 -0.0068879777443718445 -0.010117706016898155 0.0056220269449502808 0.010862185653944041 -0.0053463251918095187 -0.008442048650810741
leaf_weight=3419 2678 9134 9016 6739 5493 4572 4923 2178 7202 4233 10013 12881 4255 9646 4732 7994 9719 4793 9521 13821 12844 10509 4215 4314 8435 7499 7473 5417 8048 9296
leaf_count=3419 2678 9134 9016 6739 5493 4572 4923 2178 7202 4233 10013 12881 4255 9646 4732 7994 9719 4793 9521 13821 12844 10509 4215 4314 8435 7499 7473 5417 8048 9296
internal_value=6.32149e-06 -0.00438763 0.00751024 -0.00182487 0.0107245 -0.00769713 0.0041685 -0.00901637 -0.000137926 -0.00629446 -0.00337268 0.00268607 0.00910067 0.0126538 -0.00667375 0.00564797 -0.00420991 0.00307696 -0.00815346 -0.000984437 -0.00268197 0.000844755 0.0117527 0.00837045 -0.00744441 -0.0106748 0.00500007 0.0101061 -0.00588888 -0.00879151
internal_weight=225012 141914 83098 79981 42356 61933 40742 31913 38271 30020 41710 20352 23002 19354 25787 20390 18853 17674 20995 20560 22857 17711 9708 13330 13007 10918 12396 9672 12780 11474
internal_count=225012 141914 83098 79981 42356 61933 40742 31913 38271 30020 41710 20352 23002 19354 25787 20390 18853 17674 20995 20560 22857 17711 9708 13330 13007 10918 12396 9672 12780 11474
is_linear=0
shrinkage=0.05


Tree=11
num_leaves=31
num_cat=0
split_feature=0 1 0 1 1 0 0 3 1 3 1 1 1 3 3 1 3 3 1 3 3 3 3 0 3 0 3 3 0 3
split_gain=2682.26 506.606 240.679 77.0151 67.3375 33.4773 29.6131 17.355 10.5516 9.72749 7.21766 6.86004 6.37691 5.23499 4.8786 4.82884 4.74772 4.46821 4.31651 3.49461 3.17619 3.06185 3.0472 3.04699 2.92562 2.77923 2.64864 2.46469 2.36596 2.35197
threshold=36.424346923828132 3.1643600463867192 41.331573486328132 2.0446395874023442 4.3700509071350107 38.836822509765632 43.978546142578132 3.4791984558105473 3.8244658708572392 4.1787991523742685 1.2678538560867312 4.9133093357086191 1.2239174842834475 3.3651882410049443 4.4987244606018075 4.3981299400329599 4.8473906517028817 5.391510248184205 2.6517958641052251 5.0333178043365487 3.34558117389679 5.2660069465637216 2.8715277910232548 40.054473876953132 6.9780552387237558 42.739288330078132 7.2346596717834482 2.1968687772750859 37.342681884765632 7.9864206314086923
decision_type=2 2 2 2 2 2 2 2 2 2 2 2 2 2 2 2 2 2 2 2 2 2 2 2 2 2 2 2 2 2
left_child=1 3 5 7 8 15 13 10 17 18 -1 21 24 -4 23 -2 28 27 -5 -10 -8 -6 -13 -7 -9 -15 -14 -3 -17 -11
right_child=2 4 6 9 11 14 20 12 19 29 -12 22 26 25 -16 16 -18 -19 -20 -21 -22 -23 -24 -25 -26 -27 -28 -29 -30 -31
leaf_value=-0.010500628443473228 0.00094511649995367554 -0.004036256649981901 0.0083392225072926995 -0.006328869454474014 -0.00018941229691890629 0.005173324626203314 0.010943309108316809 -0.0087503134156141481 -0.0016062894451230128 -0.0041563113188019139 -0.0082975106322508325 0.00068279081419453955 -0.0070569717942277109 0.0093523595501773943 0.0076692654823196501 0.0026436208556583217 0.0051438635690303847 -0.0011557943522142878 -0.0048599588196776879 0.00010555695432617297 0.01270360372489162 0.0015612587070604966 0.0022065231169700245 0.0067779810441694916 -0.0072952563608331342 0.010876330571162269 -0.0055080669757109364 -0.0027941790212045181 0.0039605269660353444 -0.0025317475161996715
leaf_weight=8198 1483 5213 7115 9496 12391 5851 3296 8280 15027 8711 6863 5031 10174 6630 6820 5825 5550 3474 10628 3719 12564 3127 9439 6039 6019 5596 3821 17181 8265 3002
leaf_count=8198 1483 5213 7115 9496 12391 5851 3296 8280 15027 8711 6863 5031 10174 6630 6820 5825 5550 3474 10628 3719 12564 3127 9439 6039 6019 5596 3821 17181 8265 3002
internal_value=7.4711e-06 -0.00385777 0.00772378 -0.00675407 -0.000938513 0.00506153 0.0107361 -0.00812538 -0.00217007 -0.00488644 -0.00949733 0.000893721 -0.00739478 0.00942158 0.00660175 0.00369701 0.00390474 -0.00282466 -0.00555338 -0.00126669 0.0123385 0.00016344 0.00167683 0.00598884 -0.00813838 0.0100507 -0.0066345 -0.00308348 0.00341633 -0.00374019
internal_weight=224828 149794 75034 75192 74602 39833 35201 43355 44614 31837 15061 29988 28294 19341 18710 21123 19640 25868 20124 18746 15860 15518 14470 11890 14299 12226 13995 22394 14090 11713
internal_count=224828 149794 75034 75192 74602 39833 35201 43355 44614 31837 15061 29988 28294 19341 18710 21123 19640 25868 20124 18746 15860 15518 14470 11890 14299 12226 13995 22394 14090 11713
is_linear=0
shrinkage=0.05


Tree=12
num_leaves=31
num_cat=0
split_feature=0 1 0 1 0 1 0 3 1 1 3 0 1 1 1 3 3 3 3 3 3 3 3 3 0 3 0 3 3 1
split_gain=2420.87 400.146 282.735 66.6728 43.4529 41.3952 27.7905 15.8973 9.16506 9.09998 8.69247 7.36763 6.75334 5.29181 4.75579 4.60242 4.2581 4.16876 3.86167 3.21215 3.20009 3.19507 2.98129 2.68671 2.55255 2.38384 2.1601 2.03514 1.99824 1.99008
threshold=35.734893798828132 2.7978231906890874 40.406158447265632 4.0108916759490976 43.082550048828132 1.6203365325927737 37.960235595703132 5.17779564857483 3.4590448141098027 4.6480355262756357 6.2852764129638681 45.007843017578132 3.8467539548873906 0.81002032756805431 2.3152072429656987 3.1308588981628422 3.1501656770706181 2.8513411283493046 2.7678723335266118 2.621017694473267 4.1154592037200937 5.6352910995483407 5.4269068241119394 6.6887049674987802 36.875885009765632 6.0239684581756601 39.568267822265632 2.3479796648025517 2.6003502607345585 1.0848516225814822
decision_type=2 2 2 2 2 2 2 2 2 2 2 2 2 2 2 2 2 2 2 2 2 2 2 2 2 2 2 2 2 2
left_child=1 5 6 8 15 7 12 13 17 19 14 21 -2 -1 27 -4 -8 -3 -14 -5 -10 -6 -11 -17 -20 -19 -18 -7 -15 -9
right_child=2 3 4 9 11 10 16 29 20 22 -12 -13 18 28 -16 23 26 25 24 -21 -22 -23 -24 -25 -26 -27 -28 -29 -30 -31
leaf_value=-0.010540602675137116 -0.00082565200626573312 -0.0045058213826423346 0.0069282820223540743 -0.0017028330774299689 0.0098768147829935357 -0.0074771608173655763 0.0042958936483989086 -0.0075979868874265152 -0.0025743612717084073 0.00060940449798979157 -0.0037288728880408538 0.012185586201520496 0.0017391799630279007 -0.0093688655990085828 -0.0051871164300914272 0.0082209035113614999 0.0053331146982284828 -0.0033394555874859282 0.0026170700330495479 -0.00027668393203183795 -0.001286171947395124 0.011844416398443797 0.0023775939501302782 0.010087382750588849 0.0039680041827055866 -0.001523615697772976 0.0067953012267063413 -0.0061172236669647592 -0.0080983645482381114 -0.006473244279804587
leaf_weight=4615 1361 7840 6588 5478 8763 4358 7369 6652 13841 13132 5650 10485 5889 5003 11508 11467 7246 12323 7301 14134 7403 2745 2912 2347 6730 2121 3914 7633 8431 9848
leaf_count=4615 1361 7840 6588 5478 8763 4358 7369 6652 13841 13132 5650 10485 5889 5003 11508 11467 7246 12323 7301 14134 7403 2745 2912 2347 6730 2121 3914 7633 8431 9848
internal_value=4.22381e-06 -0.00392892 0.00684047 -0.00155569 0.00968196 -0.00687906 0.0038143 -0.00804999 -0.0028688 4.73537e-05 -0.00549099 0.0112241 0.00258142 -0.00907605 -0.00591448 0.00801906 0.00523008 -0.00357724 0.00281423 -0.000675101 -0.00212554 0.0103471 0.000930461 0.00853873 0.00326529 -0.00307294 0.00584649 -0.00661206 -0.00857218 -0.00692712
internal_weight=225087 142882 82205 79184 42395 63698 39810 34549 43528 35656 29149 21993 21281 18049 23499 20402 18529 22284 19920 19612 21244 11508 16044 13814 14031 14444 11160 11991 13434 16500
internal_count=225087 142882 82205 79184 42395 63698 39810 34549 43528 35656 29149 21993 21281 18049 23499 20402 18529 22284 19920 19612 21244 11508 16044 13814 14031 14444 11160 11991 13434 16500
is_linear=0
shrinkage=0.05


Tree=13
num_leaves=31
num_cat=0
split_feature=0 1 0 1 1 0 0 3 3 1 1 1 3 3 1 3 3 3 3 3 3 0 1 1 3 1 0 3 3 0
split_gain=2184.94 415.294 197.348 64.1958 52.7165 29.1928 23.0458 14.7618 8.71532 8.68172 8.20062 6.706 4.76634 4.33603 4.28112 4.23418 3.61557 3.48908 3.37856 3.17921 3.06106 3.02512 2.89539 2.66078 2.48897 2.37964 2.37233 2.07563 1.84909 1.76947
threshold=36.424346923828132 3.0294803380966191 41.439483642578132 4.2114622592926034 1.8234138488769533 38.960601806640632 44.287384033203132 5.327646255493165 3.1701153516769414 4.8229582309722909 3.6304838657379155 0.97532069683074962 3.6186479330062871 5.4939582347869882 4.3981299400329599 5.327646255493165 5.6352910995483407 7.9864206314086923 4.9530565738677987 5.2963955402374276 3.9648575782775883 40.054473876953132 2.476238608360291 2.4152669906616215 7.3794679641723642 1.1423320174217226 37.342681884765632 2.5114046335220341 3.9648575782775883 42.853546142578132
decision_type=2 2 2 2 2 2 2 2 2 2 2 2 2 2 2 2 2 2 2 2 2 2 2 2 2 2 2 2 2 2
left_child=1 4 5 10 7 14 12 11 23 20 16 -1 -4 21 -2 26 27 22 -12 -11 -5 -7 -10 -6 29 -9 -16 -3 -8 -14
right_child=2 3 6 9 8 13 28 25 17 19 18 -13 24 -15 15 -17 -18 -19 -20 -21 -22 -23 -24 -25 -26 -27 -28 -29 -30 -31
leaf_value=-0.0095923665750791472 0.00080736934075203949 -0.0039487011886288259 0.0077858071797851985 -0.00073023506096529724 -0.0065220767177189059 0.004836129197825138 0.010423619546955001 -0.0070588089369723953 -0.0051190486987926108 0.001069460967236876 -0.0018777566203766064 -0.0077313430616980719 0.0083846019752775083 0.0075119841513418455 0.0024330620796053784 0.004909727043543183 -0.001187641984030382 -0.0025206622456812214 -0.0003089453323344232 0.0027738231075775653 0.00057601844048948915 0.006292063752490285 -0.0037133438584657594 -0.0051092039744463254 0.011084072708032508 -0.0058796385095317497 0.0036786378684995867 -0.0028290521970476185 0.011690113603321506 0.0097388871283743059
leaf_weight=7372 1507 5864 8678 10231 5731 6308 4234 7809 6692 13510 17069 14265 5181 4069 6347 4580 2639 3177 4296 3431 7984 8291 8138 8052 1757 9607 9650 14159 9850 4669
leaf_count=7372 1507 5864 8678 10231 5731 6308 4234 7809 6692 13510 17069 14265 5181 4069 6347 4580 2639 3177 4296 3431 7984 8291 8138 8052 1757 9607 9650 14159 9850 4669
internal_value=4.01634e-06 -0.00348139 0.00696476 -0.000993101 -0.00626256 0.00461108 0.00975536 -0.00749323 -0.00475054 0.000600079 -0.00226526 -0.00836583 0.00867536 0.00606667 0.00338042 0.00356881 -0.00292785 -0.00402573 -0.00156233 0.00141478 -0.000157678 0.00566335 -0.00434797 -0.00569711 0.00933971 -0.00640873 0.00318462 -0.00315714 0.0113101 0.00902747
internal_weight=225147 150026 75121 79183 70843 40752 34369 39053 31790 35156 44027 21637 20285 18668 22084 20577 22662 18007 21365 16941 18215 14599 14830 13783 11607 17416 15997 20023 14084 9850
internal_count=225147 150026 75121 79183 70843 40752 34369 39053 31790 35156 44027 21637 20285 18668 22084 20577 22662 18007 21365 16941 18215 14599 14830 13783 11607 17416 15997 20023 14084 9850
is_linear=0
shrinkage=0.05


Tree=14
num_leaves=31
num_cat=0
split_feature=0 1 0 1 0 1 0 3 1 3 1 0 1 3 1 3 3 3 3 3 3 0 0 3 3 1 3 3 1 3
split_gain=1976.03 315.775 243.088 54.9652 39.815 29.5227 21.0862 12.4015 8.39172 7.1689 6.60626 6.12999 5.17393 4.39835 3.99155 3.8713 3.4595 3.38833 3.15042 2.92517 2.91352 2.73812 2.6921 2.69167 2.54311 1.99041 1.9688 1.87253 1.82899 1.77434
threshold=35.559478759765632 2.7101684808731084 40.177764892578132 3.8932809829711919 43.082550048828132 1.4764512777328493 37.439971923828132 3.2486499547958378 4.4544095993042001 7.102454900741578 3.2841988801956181 45.007843017578132 3.69463062286377 2.9745007753372197 2.1673169136047368 5.6716425418853769 4.7176456451416025 6.9188895225524911 2.6419707536697392 2.9927210807800297 2.7066148519515996 41.662872314453132 38.488189697265632 6.1081728935241708 2.6845183372497563 0.88610494136810314 2.3721284866333012 2.2982618808746342 0.63513612747192394 6.0239684581756601
decision_type=2 2 2 2 2 2 2 2 2 2 2 2 2 2 2 2 2 2 2 2 2 2 2 2 2 2 2 2 2 2
left_child=1 5 6 10 13 7 12 28 24 14 16 23 -2 -4 26 22 -3 25 -10 -12 -14 -15 -8 -6 -5 -9 -7 -16 -1 -20
right_child=2 3 4 8 11 9 15 17 18 -11 19 -13 20 21 27 -17 -18 -19 29 -21 -22 -23 -24 -25 -26 -27 -28 -29 -30 -31
leaf_value=-0.010249142070361305 -0.0010683638661891073 -0.0039034729020329716 0.0060440601498602262 -0.0018714692843266542 0.0089591318260137127 -0.0070664616475683926 0.0032298533220188538 -0.0085670509374061298 -0.00045531469946719864 -0.0034245319484636702 -0.0029599376906216958 0.011007450226216998 0.0011949452210151636 0.0069396842381196661 -0.0057781988767950784 0.0056781961524820703 -0.0022562644303649616 -0.0059679654185612113 0.0006865001386708613 -0.0018155703964351428 0.0026434309550112021 0.0082756340311565795 0.0045111518714694597 0.01092034228622369 -0.0005745567635908269 -0.0069589003720597472 -0.0057299059743227514 -0.0044751141514339987 -0.0085485215850189811 0.0022432344700471503
leaf_weight=2065 1268 13840 6555 5382 9287 4109 6975 2371 5865 4784 9036 10597 4815 7916 4128 4222 4148 8561 12231 14641 12466 7561 9998 2189 12698 10786 8557 8425 7264 2152
leaf_count=2065 1268 13840 6555 5382 9287 4109 6975 2371 5865 4784 9036 10597 4815 7916 4128 4222 4148 8561 12231 14641 12466 7561 9998 2189 12698 10786 8557 8425 7264 2152
internal_value=2.54357e-06 -0.00361116 0.00608114 -0.00154432 0.00863673 -0.00631924 0.00324499 -0.00740029 -0.000177785 -0.00520036 -0.00280137 0.0101379 0.00201373 0.00713233 -0.00553708 0.0043224 -0.00352378 -0.00674453 0.000521314 -0.00225241 0.00223993 0.00759283 0.00398483 0.00933414 -0.0009607 -0.00724933 -0.00616402 -0.00490405 -0.00892602 0.00091956
internal_weight=224892 141043 83849 79993 44105 61050 39744 31047 38328 30003 41665 22073 18549 22032 25219 21195 17988 21718 20248 23677 17281 15477 16973 11476 18080 13157 12666 12553 9329 14383
internal_count=224892 141043 83849 79993 44105 61050 39744 31047 38328 30003 41665 22073 18549 22032 25219 21195 17988 21718 20248 23677 17281 15477 16973 11476 18080 13157 12666 12553 9329 14383
is_linear=0
shrinkage=0.05


Tree=15
num_leaves=31
num_cat=0
split_feature=1 1 0 1 0 1 0 3 3 3 3 0 3 1 3 1 1 0 3 1 3 3 3 0 0 3 3 3 1 0
split_gain=1785.48 267.732 238.765 42.4898 35.9999 25.3185 25.2394 10.6755 7.94814 7.23781 6.70238 5.05424 4.76526 4.58507 4.39688 4.02537 3.64498 3.49065 3.31385 3.29181 2.82338 2.73123 2.21947 2.00694 1.86274 1.76736 1.73408 1.65119 1.60986 1.49837
threshold=4.9133093357086191 2.6802226305007939 40.177764892578132 3.8467539548873906 43.201446533203132 1.4170812368392947 37.061431884765632 5.327646255493165 5.4269068241119394 4.0277447700500497 7.8018829822540292 45.369415283203132 3.2883533239364628 3.2391237020492558 6.2852764129638681 4.3981299400329599 2.1673169136047368 41.662872314453132 3.382876038551331 0.68839734792709362 3.9246349334716801 6.6887049674987802 2.8715277910232548 38.381134033203132 35.314239501953132 2.3955122232437138 2.4661756753921513 2.2486016750335698 3.3735321760177617 38.381134033203132
decision_type=2 2 2 2 2 2 2 2 2 2 2 2 2 2 2 2 2 2 2 2 2 2 2 2 2 2 2 2 2 2
left_child=1 5 6 9 14 7 18 19 15 13 16 20 29 -3 17 27 22 -4 -2 -1 -6 28 -7 -14 -10 -21 -18 -5 -11 -8
right_child=2 3 4 8 11 10 12 -9 24 21 -12 -13 23 -15 -16 -17 26 -19 -20 25 -22 -23 -24 -25 -26 -27 -28 -29 -30 -31
leaf_value=-0.0094211781470831223 0.00095245175378104734 -0.0039071570442119783 0.0058932750150770289 -0.0020579021513985676 0.0082121578896581348 -0.006623006018253743 0.0025989422483142419 -0.0060530761144268301 0.00079154336802861715 -0.0026651315020192572 -0.0030372485988377422 0.010606133104452069 0.0040206283959714787 -0.0025939715191227813 0.0085407521779720594 -1.6311796202087021e-06 -0.0054641846962210916 0.0072286681291021532 0.0022519344283071373 -0.0084776320486354573 0.0097387737472714505 -0.00038315425963772237 -0.0053588324676059921 0.0052887599331548863 0.0027679869999432819 -0.0071978712402299798 -0.0042123045480003752 -0.00089578433823331131 -0.0015199570970297724 0.0038242279062640295
leaf_weight=3147 9146 11479 9983 4055 5685 5526 4498 13537 4708 6280 3715 8873 5568 15821 3249 12864 4311 9690 10588 4011 6642 2834 9492 7166 1596 8573 7824 12421 6013 5637
leaf_count=3147 9146 11479 9983 4055 5685 5526 4498 13537 4708 6280 3715 8873 5568 15821 3249 12864 4311 9690 10588 4011 6642 2834 9492 7166 1596 8573 7824 12421 6013 5637
internal_value=6.38429e-06 -0.00352243 0.00562996 -0.00159097 0.00820789 -0.00602985 0.00295998 -0.00708365 -0.000318345 -0.00266011 -0.00503048 0.00969331 0.00409047 -0.00314626 0.0068337 -0.000664438 -0.00530307 0.00655136 0.00164975 -0.00797004 0.00903545 -0.00178259 -0.00582441 0.00473462 0.00129228 -0.00760642 -0.00465745 -0.00118191 -0.00210515 0.00328075
internal_weight=224932 138207 86725 78071 44122 60136 42603 29268 35644 42427 30868 21200 22869 27300 22922 29340 27153 19673 19734 15731 12327 15127 15018 12734 6304 12584 12135 16476 12293 10135
internal_count=224932 138207 86725 78071 44122 60136 42603 29268 35644 42427 30868 21200 22869 27300 22922 29340 27153 19673 19734 15731 12327 15127 15018 12734 6304 12584 12135 16476 12293 10135
is_linear=0
shrinkage=0.05


Tree=16
num_leaves=31
num_cat=0
split_feature=0 1 0 1 1 0 0 3 3 1 1 1 3 3 3 3 0 0 3 3 3 0 1 1 1 3 3 1 3 3
split_gain=1612.41 255.858 196.727 39.751 29.0699 26.1919 23.3127 11.3132 6.24312 5.87076 5.6204 5.35131 3.94271 3.44719 3.39645 3.24392 3.14649 2.94859 2.74256 2.50162 2.42184 2.36858 2.25936 2.16695 2.09669 2.05207 2.01516 1.82785 1.77063 1.7581
threshold=35.559478759765632 2.8269183635711674 40.648590087890632 3.9851927757263188 1.7382147908210757 43.576690673828132 38.171295166015632 3.2486499547958378 4.5688049793243417 4.6480355262756357 3.4385089874267583 4.6480355262756357 6.5281860828399667 5.7082107067108163 2.9543582201004033 6.8013901710510263 45.369415283203132 42.262481689453132 2.6646467447280888 4.2023067474365243 2.5788213014602666 36.775299072265632 1.0640910863876345 1.0640910863876345 2.3492341041564946 2.621017694473267 4.7432661056518564 2.3492341041564946 6.5801689624786386 6.6887049674987802
decision_type=2 2 2 2 2 2 2 2 2 2 2 2 2 2 2 2 2 2 2 2 2 2 2 2 2 2 2 2 2 2
left_child=1 4 6 10 7 12 9 23 24 29 18 19 17 21 -8 22 26 -4 -3 -5 -12 -11 -9 -1 -6 -13 -7 -10 -16 -2
right_child=2 3 5 11 8 16 14 15 27 13 20 25 -14 -15 28 -17 -18 -19 -20 -21 -22 -23 -24 -25 -26 -27 -28 -29 -30 -31
leaf_value=-0.0084980864791572696 -0.00046924433865508499 -0.0038075341852730235 0.0060333464935250665 -0.0010184474561574185 -0.0054732318027620507 0.0081902579935103637 0.0035607477767559087 -0.007240367032567187 -0.0039812866807336375 0.0015537566727707444 -0.0026250835188941874 -0.00026389814742441945 0.0085762086471375763 0.0038607712360926917 0.0047034851502745908 -0.0052387717479291922 0.01007746403590775 0.0072888279785329095 -0.0025548740320853643 0.00012806601532410939 -0.0014431592742841354 0.002719174747113526 -0.0059506896976454079 -0.007102258946035717 -0.0043844912086432276 0.0010414551642683549 0.0096901167476135044 -0.0025956497711755828 0.0063175130445609854 0.0019929496180941678
leaf_weight=5761 2488 6361 10874 12737 8409 5964 6523 5127 4946 8313 6083 4237 2844 3621 10139 10512 8809 8289 14007 7594 15096 9181 10271 5491 9415 10399 3673 4607 2054 1022
leaf_count=5761 2488 6361 10874 12737 8409 5964 6523 5127 4946 8313 6083 4237 2844 3621 10139 10512 8809 8289 14007 7594 15096 9181 10271 5491 9415 10399 3673 4607 2054 1022
internal_value=-3.65225e-08 -0.0032635 0.00549342 -0.00130769 -0.00558214 0.00800107 0.00315274 -0.00649304 -0.00434548 0.00214164 -0.0023532 -6.54195e-05 0.00683553 0.00245639 0.00448288 -0.00591754 0.00939117 0.00657676 -0.00294625 -0.000590218 -0.00178274 0.0021655 -0.00638055 -0.00781761 -0.00489842 0.000663574 0.00876285 -0.0033134 0.00497588 0.000248031
internal_weight=224847 141053 83794 76514 64539 40453 43341 37162 27377 24625 41547 34967 22007 21115 18716 25910 18446 19163 20368 20331 21179 17494 15398 11252 17824 14636 9637 9553 12193 3510
internal_count=224847 141053 83794 76514 64539 40453 43341 37162 27377 24625 41547 34967 22007 21115 18716 25910 18446 19163 20368 20331 21179 17494 15398 11252 17824 14636 9637 9553 12193 3510
is_linear=0
shrinkage=0.05


Tree=17
num_leaves=31
num_cat=0
split_feature=1 1 0 1 0 1 0 3 3 3 3 0 1 3 3 1 1 3 3 0 3 3 0 1 3 3 3 3 0 3
split_gain=1452.98 222.649 189.534 36.2897 30.9178 20.9766 17.9808 8.52765 7.24948 6.0022 5.90576 5.13737 4.51506 3.91421 3.67787 3.64915 3.15518 2.55939 2.46469 2.04778 1.90405 1.89808 1.86758 1.61634 1.56716 1.55711 1.48308 1.44794 1.42977 1.37767
threshold=4.9442007541656503 2.6802226305007939 40.054473876953132 3.8244658708572392 42.970733642578132 1.3887145519256594 36.966583251953132 3.1308588981628422 5.2347099781036386 5.1471135616302499 7.7103569507598886 44.465972900390632 3.2391237020492558 3.677659392356873 2.8312091827392583 4.4265365600585946 2.126947402954102 2.9329038858413701 7.168156862258912 41.548370361328132 6.8013901710510263 2.2486016750335698 35.151153564453132 0.84990227222442638 2.1968687772750859 6.8013901710510263 2.1199666261672978 1.9558723568916323 38.381134033203132 2.0376507043838505
decision_type=2 2 2 2 2 2 2 2 2 2 2 2 2 2 2 2 2 2 2 2 2 2 2 2 2 2 2 2 2 2
left_child=1 5 6 9 14 7 17 -1 15 12 16 20 29 28 -4 26 21 -2 23 -16 -6 -7 -10 -9 -18 -15 -5 -14 -8 -3
right_child=2 3 4 8 11 10 13 18 22 -11 -12 -13 27 25 19 -17 24 -19 -20 -21 -22 -23 -24 -25 -26 -27 -28 -29 -30 -31
leaf_value=-0.0077965599605565499 0.00067916395546982857 -0.0042183316443135397 0.0049552408158816882 -0.0019454618129848373 0.007497428652126133 -0.0062584347823704291 0.0024035857378396346 -0.0075227640378169522 0.00062923182339932264 -0.0011502761278633304 -0.0027744088929639909 0.0092912113214605636 -0.0030981371235039045 0.004013566081602634 0.0058655806681541375 2.3846193078442454e-05 -0.005091635791526627 0.0019198247218097102 -0.0051278827179192287 0.0069962859169901102 0.0095987711731564309 -0.0049783112086191567 0.0024099529965616383 -0.0060357769806176666 -0.0038858934946965438 0.005622154855360724 -0.00084765512104825833 -0.0020143365717677493 0.0034947881872368445 -0.0030963212941253447
leaf_weight=8185 6459 3727 5922 3993 8433 3963 5767 2222 5690 7546 4031 13183 3820 8799 8318 12361 3870 11670 7086 7840 1253 10985 1986 10863 9005 1824 13410 16040 6291 10409
leaf_count=8185 6459 3727 5922 3993 8433 3963 5767 2222 5690 7546 4031 13183 3820 8799 8318 12361 3870 11670 7086 7840 1253 10985 1986 10863 9005 1824 13410 16040 6291 10409
internal_value=-5.34618e-07 -0.00315473 0.00511889 -0.0014087 0.0073586 -0.00544506 0.0026519 -0.00643438 -0.00027974 -0.00242615 -0.0045642 0.00864738 -0.00270932 0.0035902 0.00602344 -0.000633069 -0.0048234 0.00147786 -0.00588128 0.00641461 0.00777023 -0.00531809 0.00109021 -0.00628884 -0.00424869 0.00429027 -0.00109964 -0.00222295 0.00297314 -0.00339242
internal_weight=224951 139192 85759 78982 44949 60210 40810 28356 37440 41542 31854 22869 33996 22681 22080 29764 27823 18129 20171 16158 9686 14948 7676 13085 12875 10623 17403 19860 12058 14136
internal_count=224951 139192 85759 78982 44949 60210 40810 28356 37440 41542 31854 22869 33996 22681 22080 29764 27823 18129 20171 16158 9686 14948 7676 13085 12875 10623 17403 19860 12058 14136
is_linear=0
shrinkage=0.05


Tree=18
num_leaves=31
num_cat=0
split_feature=0 1 0 1 1 0 0 3 3 1 1 3 0 1 3 1 3 3 3 3 0 3 3 3 1 3 1 3 1 3
split_gain=1313.23 208.417 160.664 30.7818 25.9462 22.5491 17.6038 9.27654 5.69963 4.93183 4.29482 3.91902 3.82191 3.7267 3.00199 2.80495 2.72475 2.59273 2.31719 2.28986 2.12795 1.96504 1.94487 1.79289 1.6342 1.5296 1.51295 1.45737 1.45688 1.37577
threshold=35.559478759765632 2.8850357532501225 40.521026611328132 4.0620436668396005 1.6988877058029177 43.709259033203132 37.960235595703132 5.4593000411987314 3.5786021947860722 3.5226651430130009 4.5364220142364511 5.5290806293487558 42.142608642578132 0.77114808559417736 5.9019868373870858 4.6756536960601816 3.0320786237716679 3.0913760662078862 8.2976913452148455 2.8513411283493046 39.568267822265632 2.7678723335266118 4.0490522384643564 3.4398119449615483 2.3492341041564946 2.1199666261672978 1.1032600402832033 6.4759190082550058 2.4152669906616215 6.4283068180084237
decision_type=2 2 2 2 2 2 2 2 2 2 2 2 2 2 2 2 2 2 2 2 2 2 2 2 2 2 2 2 2 2
left_child=1 4 6 9 7 12 10 13 24 19 27 15 23 -1 20 -5 -12 -7 28 -3 -8 -11 -14 -4 -6 -15 -9 -2 -10 -18
right_child=2 3 5 11 8 17 14 26 18 21 16 -13 22 25 -16 -17 29 -19 -20 -21 -22 -23 -24 -25 -26 -27 -28 -29 -30 -31
leaf_value=-0.0079253609387423037 -0.00063794460661275362 -0.0032393575899969267 0.0048132134700611525 -0.00064323141550142935 -0.0051462404010537291 0.0072287035468536071 0.003184545266289448 -0.0055625565835575354 -0.0040032951915583027 -0.0021600402826353698 0.0013562326854719637 0.0013247307526047393 0.0062123963071432017 -0.0070808371422635998 0.0052819556922101812 0.00037710485539721472 0.0023461066334386207 0.0088216924511967821 -0.0018920775532182731 -0.0021701865934358744 0.0043753939967508581 -0.0011157071964399451 0.007524249212057502 0.0060503416555503049 -0.0040973371266621976 -0.0059611420943539231 -0.0045737640912040817 0.0016915773820813862 -0.002901101317714855 0.0037827670981053908
leaf_weight=4205 2072 7703 4884 15907 6981 3146 10219 6682 6597 6754 7272 4888 6045 4150 3287 11681 10649 14412 2749 14355 5949 13536 5399 7439 8019 11956 9330 992 5528 1979
leaf_count=4205 2072 7703 4884 15907 6981 3146 10219 6682 6597 6754 7272 4888 6045 4150 3287 11681 10649 14412 2749 14355 5949 13536 5399 7439 8019 11956 9330 992 5528 1979
internal_value=-9.05954e-07 -0.00294607 0.0049586 -0.00113807 -0.00498966 0.00717742 0.00279688 -0.00588747 -0.00389787 -0.00202615 0.00185922 1.99964e-05 0.00617293 -0.00659728 0.00390351 -0.000211214 0.00212752 0.00853669 -0.00320384 -0.00254369 0.00362296 -0.00146343 0.0068319 0.00556046 -0.00458581 -0.00625007 -0.00498672 0.000116567 -0.00350107 0.00257153
internal_weight=224765 141021 83744 74824 66197 41325 42419 36323 29874 42348 22964 32476 23767 20311 19455 27588 19900 17558 14874 22058 16168 20290 11444 12323 15000 16106 16012 3064 12125 12628
internal_count=224765 141021 83744 74824 66197 41325 42419 36323 29874 42348 22964 32476 23767 20311 19455 27588 19900 17558 14874 22058 16168 20290 11444 12323 15000 16106 16012 3064 12125 12628
is_linear=0
shrinkage=0.05


Tree=19
num_leaves=31
num_cat=0
split_feature=0 1 0 1 0 1 0 3 1 3 0 3 3 1 3 1 1 3 3 0 3 1 3 3 3 3 1 1 3 3
split_gain=1187.55 185.566 148.67 31.8216 26.4521 18.3 11.8402 7.45497 5.02161 4.86695 4.29096 4.17828 3.36724 3.16278 2.94351 2.56027 2.54323 2.34477 2.2106 2.13435 1.88577 1.85377 1.84357 1.67114 1.66284 1.59887 1.52606 1.3306 1.29315 1.2543
threshold=35.481719970703132 2.7101684808731084 39.939361572265632 3.8699059486389165 42.970733642578132 1.4465215206146242 37.152862548828132 3.0127414464950566 4.48093605041504 6.3810992240905771 44.465972900390632 2.3479796648025517 5.7082107067108163 3.5865625143051152 2.6845183372497563 2.126947402954102 3.4165198802948002 7.2346596717834482 2.3479796648025517 41.548370361328132 3.382876038551331 4.6480355262756357 2.4891041517257695 6.5801689624786386 6.1944315433502206 6.3810992240905771 0.94855499267578136 2.2831468582153325 6.3810992240905771 2.0650304555892949
decision_type=2 2 2 2 2 2 2 2 2 2 2 2 2 2 2 2 2 2 2 2 2 2 2 2 2 2 2 2 2 2
left_child=1 5 6 11 12 7 13 -1 20 15 23 -3 19 -2 -8 -7 24 26 -10 -4 -5 -16 -15 -6 -13 -23 -9 -11 -20 -17
right_child=2 3 4 8 10 9 14 17 18 27 -12 16 -14 22 21 29 -18 -19 28 -21 -22 25 -24 -25 -26 -27 -28 -29 -30 -31
leaf_value=-0.0070536615136518226 -0.0010558415681901764 -0.0030860358023569959 0.0046098747315942564 -0.0012962737435128751 0.0067355416103039899 -0.0048953282139326676 0.002252045048951113 -0.006523514699756987 -0.00060513550875202632 -0.0033483892020430097 0.0083972702281872071 -0.0024992217293255316 0.0066350728152392308 0.00059705999746478204 0.0015228282036234846 -0.0046401449595331896 -0.0013972857465225266 -0.0045397478606187605 0.00052583762131288951 0.0056922414275154109 -0.00031468408612333532 0.0034310331513582233 0.0018889627463950683 0.0086236171731240829 -0.00098325809840719438 0.0048054228568624735 -0.0053491298527933101 -0.0018454751279562234 0.0020974365648688729 -0.0035555450426475767
leaf_weight=8213 1220 10050 9986 8834 8276 11672 6387 3730 4318 4127 13208 14997 4494 3602 1079 3783 13489 7137 13053 8448 10968 12123 11850 1383 2059 2573 11051 2297 1454 9166
leaf_count=8213 1220 10050 9986 8834 8276 11672 6387 3730 4318 4127 13208 14997 4494 3602 1079 3783 13489 7137 13053 8448 10968 12123 11850 1383 2059 2573 11051 2297 1454 9166
internal_value=-1.46468e-06 -0.00282151 0.00467692 -0.00122411 0.00660673 -0.00489007 0.00240108 -0.005768 -0.000196797 -0.00403782 0.00781025 -0.0022016 0.00540613 0.00139436 0.00315831 -0.00435769 -0.0019105 -0.00528594 0.000387893 0.00510619 -0.000752631 0.00352508 0.00158787 0.00700675 -0.00231628 0.00367197 -0.00564591 -0.00281137 0.000683489 -0.00387274
internal_weight=225027 140398 84629 79222 45795 61176 38834 30131 38627 31045 22867 40595 22928 16672 22162 24621 30545 21918 18825 18434 19802 15775 15452 9659 17056 14696 14781 6424 14507 12949
internal_count=225027 140398 84629 79222 45795 61176 38834 30131 38627 31045 22867 40595 22928 16672 22162 24621 30545 21918 18825 18434 19802 15775 15452 9659 17056 14696 14781 6424 14507 12949
is_linear=0
shrinkage=0.05


Tree=20
num_leaves=31
num_cat=0
split_feature=0 1 0 1 1 0 0 3 3 3 0 1 3 1 1 3 3 1 3 3 3 3 3 1 3 3 3 3 3 3
split_gain=1071.16 210.395 89.5031 31.6281 27.9608 12.5582 11.475 7.66325 4.87329 4.23167 4.1223 3.37197 3.01169 2.96965 2.75784 2.56924 2.24952 2.22816 2.16687 1.84526 1.65346 1.62177 1.59006 1.52443 1.4858 1.32018 1.26872 1.20904 1.19907 1.08355
threshold=36.599151611328132 3.1894936561584477 41.439483642578132 2.0446395874023442 4.2909758090972909 39.329132080078132 44.287384033203132 3.2684670686721806 3.7575598955154423 5.4939582347869882 35.069610595703132 1.1235194206237795 3.2092214822769169 1.2036076784133913 3.69463062286377 5.8203754425048837 4.9790592193603525 4.5094413757324228 2.4891041517257695 7.8018829822540292 2.2486016750335698 7.5435378551483163 8.2976913452148455 2.5948857069015507 2.3228839635849003 7.5435378551483163 3.1308588981628422 5.9019868373870858 2.0108646154403691 2.3479796648025517
decision_type=2 2 2 2 2 2 2 2 2 2 2 2 2 2 2 2 2 2 2 2 2 2 2 2 2 2 2 2 2 2
left_child=1 3 5 7 9 15 12 13 23 14 18 25 -4 -1 -3 17 29 -2 -6 -14 -19 -13 -10 -5 -12 -9 -8 -20 -16 -7
right_child=2 4 6 8 10 16 26 11 22 -11 24 21 19 -15 28 -17 -18 20 27 -21 -22 -23 -24 -25 -26 -27 -28 -29 -30 -31
leaf_value=-0.0068161160400012563 -2.8215377898331009e-05 -0.0020461273501221557 0.0052010286210357193 -0.0041719461930501628 -0.00077636913482813234 0.0032392761631807477 0.0068118836900204066 -0.0057411496861166107 -0.0026387076961069261 -9.4153469760527072e-05 0.00021625273611497334 -0.0045045198586940996 0.0062993586628141245 -0.005361763838645086 -0.0019623276750698059 0.0036947463663704449 0.0053345007549054947 0.0016196632136872488 0.0002100470375692143 0.0082383127062433011 0.0027314019910883985 -0.0033619890271840893 -0.0012852036550423105 -0.0032392818668307271 0.0015086860828505246 -0.0046003812233502191 0.0081324428336862747 0.0014470523869664557 -0.00096761806207991863 0.0043292844600680445
leaf_weight=7107 954 17518 6745 7421 5299 3189 2197 7482 11711 5391 2840 14040 12057 7002 3812 4199 4617 4473 13332 1379 13323 4010 2667 10783 10253 3886 11880 2318 14779 8161
leaf_count=7107 954 17518 6745 7421 5299 3189 2197 7482 11711 5391 2840 14040 12057 7002 3812 4199 4617 4473 13332 1379 13323 4010 2667 10783 10253 3886 11880 2318 14779 8161
internal_value=-1.66211e-06 -0.00239901 0.00496674 -0.00425441 -0.000529653 0.0033259 0.00683052 -0.0051363 -0.00307615 -0.00140087 0.000532443 -0.00467642 0.00606544 -0.00609478 -0.00159595 0.0025765 0.00440278 0.00232588 9.7447e-05 0.00649896 0.00245207 -0.00425089 -0.00238775 -0.0036197 0.00122838 -0.00535163 0.00792684 0.000393347 -0.00117167 0.00402334
internal_weight=224825 151651 73174 76109 75542 38916 34258 43527 32582 41500 34042 29418 20181 14109 36109 22949 15967 18750 20949 13436 17796 18050 14378 18204 13093 11368 14077 15650 18591 11350
internal_count=224825 151651 73174 76109 75542 38916 34258 43527 32582 41500 34042 29418 20181 14109 36109 22949 15967 18750 20949 13436 17796 18050 14378 18204 13093 11368 14077 15650 18591 11350
is_linear=0
shrinkage=0.05


Tree=21
num_leaves=31
num_cat=0
split_feature=1 1 0 1 0 1 0 3 3 3 3 0 1 3 3 1 3 3 3 1 3 1 3 3 3 3 3 0 3 3
split_gain=968.67 142.427 131.704 24.1575 21.9662 12.508 12.5033 5.40095 5.03926 4.60451 4.16889 3.91821 2.83411 2.83279 2.82799 2.79806 2.41983 2.3425 2.1376 2.06344 1.81628 1.8094 1.41685 1.41166 1.31984 1.20436 1.13214 1.0784 1.048 1.04588
threshold=4.8828029632568368 2.5948857069015507 39.939361572265632 3.7380813360214238 42.853546142578132 1.2678538560867312 36.875885009765632 5.7455112934112558 5.4939582347869882 4.594233751296998 8.0824923515319842 45.369415283203132 4.2909758090972909 2.891876339912415 2.6419707536697392 3.215705513954163 4.5435557365417489 1.9558723568916323 5.5639178752899179 0.57420718669891369 6.9780552387237558 1.779622554779053 6.6887049674987802 7.168156862258912 2.2226771116256718 2.0108646154403691 2.4192498922348027 41.548370361328132 2.0376507043838505 1.8990883231163027
decision_type=2 2 2 2 2 2 2 2 2 2 2 2 2 2 2 2 2 2 2 2 2 2 2 2 2 2 2 2 2 2
left_child=1 5 6 9 14 8 18 12 19 15 17 16 26 -8 -4 29 -6 -7 25 -1 27 -19 -15 -11 -14 -2 -5 -16 -21 -3
right_child=2 3 4 7 11 10 13 -9 -10 23 -12 -13 24 22 20 -17 -18 21 -20 28 -22 -23 -24 -25 -26 -27 -28 -29 -30 -31
leaf_value=-0.007442736485345775 1.4528490350606723e-05 -0.0036415748387358332 0.0038030107331007788 -0.001667615852845849 0.0060035923355190521 -0.0049361457883933492 0.002103654328442844 0.0011088946913465172 -0.0045506732999121098 -0.0015089151166287392 -0.002297320383732811 0.007859015809561179 -0.0009540977321767642 0.0030839108640483837 0.0045661166350150651 -0.001963269903299222 0.0073047803279012447 -0.0043367194035319094 0.002306610260965943 -0.0065887036481123472 0.0065297032871160163 -0.0034560476015815288 0.0045129446010659675 -0.00010638298311279926 0.00013604088928301233 0.0011078193303811726 -0.00078252658955295568 0.0054272436785399968 -0.0054740167890826585 -0.0026695516975844117
leaf_weight=2152 3147 3779 5178 4993 8988 6382 7862 5358 10299 8133 3663 8765 3589 12697 8321 15961 5999 10694 3202 2835 2074 12920 2015 2302 12252 12622 13082 6560 8640 10457
leaf_count=2152 3147 3779 5178 4993 8988 6382 7862 5358 10299 8133 3663 8765 3589 12697 8321 15961 5999 10694 3202 2835 2074 12920 2015 2302 12252 12622 13082 6560 8640 10457
internal_value=-4.27244e-08 -0.00261663 0.00411474 -0.00125047 0.00596128 -0.00451228 0.0020752 -0.000366177 -0.0053865 -0.00210517 -0.00389072 0.00701752 -0.000599233 0.00287037 0.00482752 -0.00241808 0.00652488 -0.00408522 0.00112892 -0.00601781 0.00514016 -0.00385504 0.00327993 -0.00119955 -0.00011099 0.000889647 -0.0010271 0.00494607 -0.00574996 -0.00292782
internal_weight=224921 137491 87430 79906 45885 57585 41545 39274 23926 40632 33659 23752 33916 22574 22133 30197 14987 29996 18971 13627 16955 23614 14712 10435 15841 15769 18075 14881 11475 14236
internal_count=224921 137491 87430 79906 45885 57585 41545 39274 23926 40632 33659 23752 33916 22574 22133 30197 14987 29996 18971 13627 16955 23614 14712 10435 15841 15769 18075 14881 11475 14236
is_linear=0
shrinkage=0.05


Tree=22
num_leaves=31
num_cat=0
split_feature=0 1 0 1 1 0 0 3 3 1 1 3 3 1 3 0 3 3 3 3 1 3 1 3 3 1 3 3 3 1
split_gain=874.988 136.492 109.11 19.47 17.4128 14.393 13.6454 6.14702 4.25893 3.32029 3.29904 2.91683 2.70098 2.45344 2.27076 2.19449 2.14877 2.14142 1.72267 1.63219 1.5954 1.48718 1.48145 1.23874 1.23076 1.21238 1.13681 1.03629 0.941905 0.941467
threshold=35.481719970703132 2.8850357532501225 40.648590087890632 4.0620436668396005 1.5442542433738711 43.843292236328132 38.171295166015632 5.5639178752899179 3.0523418188095097 3.5013817548751835 4.6756536960601816 6.9780552387237558 4.8994269371032724 0.63513612747192394 4.0926263332366952 42.384552001953132 2.7678723335266118 8.5483727455139178 2.9927210807800297 3.0523418188095097 4.7644944190979013 4.6916372776031503 2.3492341041564946 7.168156862258912 2.1723585128784184 2.2831468582153325 7.0375382900238046 2.5114046335220341 1.8990883231163027 1.0230376720428469
decision_type=2 2 2 2 2 2 2 2 2 2 2 2 2 2 2 2 2 2 2 2 2 2 2 2 2 2 2 2 2 2
left_child=1 4 6 9 7 11 10 13 25 19 23 15 20 -1 -12 27 -8 22 -7 -3 28 -11 -10 -2 -15 -6 -18 -4 -5 -9
right_child=2 3 5 12 8 18 16 29 17 21 14 -13 -14 24 -16 -17 26 -19 -20 -21 -22 -23 -24 -25 -26 -27 -28 -29 -30 -31
leaf_value=-0.0068971330171899228 -0.00028727875868758034 -0.0026274414448708024 0.0035869643884201699 -0.001346791884970605 -0.0044669521097289644 0.0058340056500760205 0.0025138538748814441 -0.0046874684904930413 -0.0034364212196382905 -0.0014393142750366661 0.0013623596696822045 0.0067227698493164166 0.0008039947825313773 -0.0059970748245429537 0.0024065859665515976 0.0054880173074756964 0.0035135684352067299 -0.0014954545237481315 0.0072387972922930283 -0.0017311432623539254 0.00028560680165531542 -0.00044545103071283692 -0.002508010534763642 0.0018441464701440175 -0.0049905907111764932 -0.003512003856084165 0.0050070122161609987 0.0047111826664823697 -0.00037677220196139026 -0.0038250428845851094
leaf_weight=2675 2989 8564 2647 3121 6277 2619 5700 4782 9401 16142 12915 2490 7679 4159 8729 9334 11480 2695 14011 12513 8356 4910 7948 882 11638 7140 1440 9391 12621 9552
leaf_count=2675 2989 8564 2647 3121 6277 2619 5700 4782 9401 16142 12915 2490 7679 4159 8729 9334 11480 2695 14011 12513 8356 4910 7948 882 11638 7140 1440 9391 12621 9552
internal_value=-6.25713e-07 -0.00242441 0.00401403 -0.000946985 -0.00407211 0.00588837 0.0022943 -0.00489075 -0.00326938 -0.00165179 0.00154316 0.0051009 -1.25498e-05 -0.00549397 0.00178359 0.00491163 0.00332344 -0.00280754 0.00701793 -0.00209543 -0.00027277 -0.00120755 -0.00301126 0.000198713 -0.00525594 -0.00395907 0.0036804 0.0044643 -0.000569161 -0.00411307
internal_weight=224800 140173 84627 73906 66267 40492 44135 32806 33461 42129 25515 23862 31777 18472 21644 21372 18620 20044 16630 21077 24098 21052 17349 3871 15797 13417 12920 12038 15742 14334
internal_count=224800 140173 84627 73906 66267 40492 44135 32806 33461 42129 25515 23862 31777 18472 21644 21372 18620 20044 16630 21077 24098 21052 17349 3871 15797 13417 12920 12038 15742 14334
is_linear=0
shrinkage=0.05


Tree=23
num_leaves=31
num_cat=0
split_feature=0 1 0 1 1 0 0 3 3 3 3 3 1 1 3 1 3 3 3 3 3 1 1 1 1 3 3 3 0 1
split_gain=791.647 152.267 68.3287 22.2408 20.8089 9.63356 8.66042 6.01425 4.07789 3.87858 2.80183 2.63982 2.27308 2.11289 1.91958 1.812 1.78226 1.59681 1.57165 1.55902 1.39794 1.34228 1.32454 1.24075 1.15379 1.02002 1.01192 0.992322 0.986135 0.978181
threshold=36.512725830078132 3.0843697786331181 41.217071533203132 4.3700509071350107 1.779622554779053 44.287384033203132 38.836822509765632 3.0127414464950566 3.2486499547958378 4.2448480129241952 5.5639178752899179 3.4211323261260991 3.6511346101760869 1.0640910863876345 5.17779564857483 4.973595619201661 4.6666653156280526 8.4163079261779803 7.9864206314086923 6.5281860828399667 7.0375382900238046 0.57420718669891369 4.5094413757324228 2.476238608360291 2.4460781812667851 7.9864206314086923 4.1154592037200937 2.0376507043838505 42.501739501953132 3.6511346101760869
decision_type=2 2 2 2 2 2 2 2 2 2 2 2 2 2 2 2 2 2 2 2 2 2 2 2 2 2 2 2 2 2
left_child=1 4 6 9 7 11 16 21 24 12 15 -4 -3 25 27 -5 22 23 28 29 -15 -1 -2 -10 -6 -9 -7 -8 -13 -11
right_child=2 3 5 10 8 26 14 13 17 19 -12 18 -14 20 -16 -17 -18 -19 -20 -21 -22 -23 -24 -25 -26 -27 -28 -29 -30 -31
leaf_value=-0.0069157820622293663 -0.00043184893073833089 -0.0019790949678344361 0.004439939200223968 -8.5436613423142116e-05 -0.0039313828316227687 0.0062076573320024404 0.0024075802558553416 -0.0050536703303543078 -0.0030254161748043944 -0.0013315362392772767 0.001575458595022829 0.0048855399579532085 -0.0011367863676345253 -0.0041193976742651016 0.0044438655617771022 0.00075895749061953956 0.002721224781657032 -0.0012423673524038948 0.0072172472816633068 0.00053486265979595105 -0.0031644939994977584 -0.0053124794331725518 0.0018312297917023488 -0.0021457552294909792 -0.0030602261749406376 -0.0039115033278737509 0.0071112533702733629 0.0034744518280437906 0.0057952724479426983 -0.00043929532412108856
leaf_weight=1542 680 15376 8484 14422 6755 4757 2768 7040 7234 5184 5040 5445 16731 12187 4545 11355 6566 2793 1312 2627 5624 9009 13012 9030 8770 2738 9365 10446 6748 7541
leaf_count=1542 680 15376 8484 14422 6755 4757 2768 7040 7234 5184 5040 5445 16731 12187 4545 11355 6566 2793 1312 2627 5624 9009 13012 9030 8770 2738 9365 10446 6748 7541
internal_value=-1.49647e-06 -0.00207893 0.00423019 -0.000548519 -0.0037262 0.00578777 0.00275059 -0.00453162 -0.00283781 -0.00122766 0.000497383 0.0051327 -0.00154022 -0.00414295 0.00355664 0.000286542 0.00204383 -0.00234749 0.00556754 -0.000573931 -0.00381807 -0.00554743 0.00171881 -0.00253718 -0.0034395 -0.00473428 0.00680734 0.00325117 0.00538945 -0.000802859
internal_weight=225126 150998 74128 78276 72722 36111 38017 38140 34582 47459 30817 21989 32107 27589 17759 25777 20258 19057 13505 15352 17811 10551 13692 16264 15525 9778 14122 13214 12193 12725
internal_count=225126 150998 74128 78276 72722 36111 38017 38140 34582 47459 30817 21989 32107 27589 17759 25777 20258 19057 13505 15352 17811 10551 13692 16264 15525 9778 14122 13214 12193 12725
is_linear=0
shrinkage=0.05


Tree=24
num_leaves=31
num_cat=0
split_feature=1 0 1 0 1 0 1 3 3 3 3 3 3 3 3 3 1 3 1 1 0 3 3 3 3 3 3 3 0 3
split_gain=713.504 104.745 99.3321 16.9596 16.6551 10.1068 8.80118 4.08182 3.62465 3.38089 2.81403 2.72576 2.38373 2.31544 2.23808 2.20598 1.98102 1.85239 1.61326 1.52537 1.44492 1.28425 1.20918 1.20121 1.06803 1.06092 0.994465 0.862295 0.823424 0.810426
threshold=4.7923371791839608 39.814971923828132 2.5376266241073613 42.970733642578132 3.6511346101760869 36.775299072265632 1.1032600402832033 6.0644302368164071 5.8605122566223153 7.8018829822540292 2.8312091827392583 2.8107205629348759 3.9648575782775883 2.5114046335220341 1.8990883231163027 2.4661756753921513 1.7382147908210757 3.7776807546615605 4.1863157749176034 3.215705513954163 45.543731689453132 6.2400043010711679 2.6646467447280888 2.0376507043838505 7.8018829822540292 7.4598805904388437 6.4283068180084237 2.0376507043838505 38.276153564453132 6.4759190082550058
decision_type=2 2 2 2 2 2 2 2 2 2 2 2 2 2 2 2 2 2 2 2 2 2 2 2 2 2 2 2 2 2
left_child=2 5 6 12 8 17 11 15 14 16 -5 -1 27 -7 -4 -6 22 -2 -17 -16 26 28 -8 -18 -13 -14 -12 -3 -15 -19
right_child=1 3 4 10 7 13 9 -9 -10 -11 20 24 25 21 19 18 23 29 -20 -21 -22 -23 -24 -25 -26 -27 -28 -29 -30 -31
leaf_value=-0.0058473656739109472 0.000442717915834538 0.0029649095701770145 -0.0028947426875815425 0.0048298691034902135 -0.0012580052946689344 0.0015557599612216868 -0.0048341680078913297 0.0010442540087239815 -0.00063550104994118542 -0.0023104081446345473 0.0057240617430198443 -0.0047532359611499701 0.0044756907115656329 0.0021365092161540478 -0.0022435295801286684 -0.00076221407091919791 -0.0039895451806997292 0.0011763692084105154 2.2758948652759186e-05 -0.0014933304942352 0.0068609801528926317 0.0036568214908973985 -0.0038333505293469614 -0.0030240052939948005 -0.0036885194172337995 0.0058716732067324194 0.006882473576110517 0.0039190857904084038 0.0029065617499056096 0.0023886451587320015
leaf_weight=5050 11272 3249 6806 3870 9800 5987 3908 4114 4951 5143 9192 8518 10136 7355 14009 13394 4455 7663 12800 13145 7404 2911 13562 11776 3288 1586 2361 8925 6611 1682
leaf_count=5050 11272 3249 6806 3870 9800 5987 3908 4114 4951 5143 9192 8518 10136 7355 14009 13394 4455 7663 12800 13145 7404 2911 13562 11776 3288 1586 2361 8925 6611 1682
internal_value=1.87483e-06 0.00344339 -0.00230248 0.00508702 -0.00116256 0.00167714 -0.00391957 -0.000447559 -0.00189953 -0.00350533 0.00606184 -0.0048739 0.00415559 0.002401 -0.00208379 -0.000618092 -0.0036876 0.000874311 -0.000378642 -0.00188043 0.00631307 0.00270074 -0.0040575 -0.00328925 -0.00445705 0.00466505 0.00596137 0.0036647 0.00250121 0.0013948
internal_weight=224923 90204 134719 46723 79019 43481 55700 40108 38911 38844 22827 16856 23896 22864 33960 35994 33701 20617 26194 27154 18957 16877 17470 16231 11806 11722 11553 12174 13966 9345
internal_count=224923 90204 134719 46723 79019 43481 55700 40108 38911 38844 22827 16856 23896 22864 33960 35994 33701 20617 26194 27154 18957 16877 17470 16231 11806 11722 11553 12174 13966 9345
is_linear=0
shrinkage=0.05


Tree=25
num_leaves=31
num_cat=0
split_feature=0 1 0 1 0 1 0 3 3 3 3 3 1 1 0 1 3 3 1 3 1 1 3 3 0 3 1 3 1 3
split_gain=645.005 98.3149 82.3459 14.6549 12.4481 11.9177 8.47305 4.49107 3.24215 2.5203 2.33411 2.27158 2.20455 1.80586 1.70992 1.70483 1.7046 1.67239 1.64917 1.64279 1.47795 1.06171 1.05883 0.998405 0.967226 0.962527 0.865441 0.865025 0.792541 0.774831
threshold=35.398712158203132 2.8269183635711674 40.293853759765632 3.9391885995864873 43.576690673828132 1.4764512777328493 37.642852783203132 5.4593000411987314 5.6352910995483407 2.1968687772750859 2.5336697101593022 2.6845183372497563 3.5651091337203984 0.57420718669891369 42.142608642578132 4.5094413757324228 2.6419707536697392 3.8816453218460087 2.204665064811707 2.1456238031387334 3.4590448141098027 2.3152072429656987 6.1081728935241708 7.0375382900238046 45.724517822265632 1.9271043539047243 4.6480355262756357 6.9188895225524911 0.68839734792709362 1.7532898187637331
decision_type=2 2 2 2 2 2 2 2 2 2 2 2 2 2 2 2 2 2 2 2 2 2 2 2 2 2 2 2 2 2
left_child=1 5 6 9 11 7 12 13 18 -3 -5 -4 -2 -1 -13 -12 -8 24 -7 -14 27 -10 -21 26 -6 -15 -18 -11 -9 -20
right_child=2 3 4 10 17 8 16 28 21 20 15 14 19 25 -16 -17 23 -19 29 22 -22 -23 -24 -25 -26 -27 -28 -29 -30 -31
leaf_value=-0.0061323016043623862 -0.00076226862599748429 -0.0022774519534093617 0.0033583614671699063 -0.00079942398199662156 0.0049309542723222069 -0.0036097896638919557 0.0018543857957339848 -0.0047990380100813154 -0.0024845516574799821 -0.0017370731603270813 -0.00027801718341780626 0.0040748604663615826 0.00033039696633249536 -0.0053334297294756446 0.0050372361671866019 0.00053580921486558566 0.00079016832322480993 0.0062771998722705976 -0.0034789276408652469 0.001322991199096105 -0.00095188320767558153 -0.0013422193494288894 0.0023565646060079251 0.0040483585399473335 0.0064871818686459016 -0.0043680068604934081 0.0028132820663132685 -0.00022447562736953747 -0.0034527182384201625 -0.0025810691115818289
leaf_weight=2172 1381 8704 5826 9361 4798 11402 5718 1204 5205 15247 13075 10776 3600 3360 8139 12670 553 12316 3149 13997 14747 3346 3013 1612 1278 11567 12466 1008 12642 10304
leaf_count=2172 1381 8704 5826 9361 4798 11402 5718 1204 5205 15247 13075 10776 3600 3360 8139 12670 553 12316 3149 13997 14747 3346 3013 1612 1278 11567 12466 1008 12642 10304
internal_value=-4.47825e-07 -0.00210018 0.00341821 -0.000867594 0.00495581 -0.0035331 0.00185174 -0.00424015 -0.00287802 -0.0015256 -0.000123346 0.00422306 0.00117125 -0.00478247 0.00448921 0.0001225 0.00258704 0.00594123 -0.003167 0.00130084 -0.00131445 -0.00203777 0.0015062 0.00287322 0.0052593 -0.00458566 0.00272741 -0.00164329 -0.00357013 -0.00279148
internal_weight=224636 139163 85473 74812 43133 64351 42340 30945 33406 39706 35106 24741 21991 17099 18915 25745 20349 18392 24855 20610 31002 8551 17010 14631 6076 14927 13019 16255 13846 13453
internal_count=224636 139163 85473 74812 43133 64351 42340 30945 33406 39706 35106 24741 21991 17099 18915 25745 20349 18392 24855 20610 31002 8551 17010 14631 6076 14927 13019 16255 13846 13453
is_linear=0
shrinkage=0.05


Tree=26
num_leaves=31
num_cat=0
split_feature=1 1 0 1 0 0 1 3 3 3 3 3 3 3 3 1 1 1 3 0 3 3 3 3 3 3 0 1 0 1
split_gain=583.174 88.5027 74.8028 15.123 10.5873 9.04802 8.26641 3.42382 3.27119 3.09111 2.59048 2.12649 2.05398 1.81072 1.76501 1.70967 1.5848 1.51393 1.4955 1.325 1.21475 1.13474 1.09098 1.05728 1.02316 0.923156 0.825826 0.794566 0.717864 0.705419
threshold=4.9442007541656503 2.6229820251464848 40.765167236328132 3.8025656938552861 37.540313720703132 43.843292236328132 1.16279673576355 5.984682798385621 3.7371766567230229 8.189613342285158 2.7273801565170293 3.3256119489669804 6.6887049674987802 1.9271043539047243 5.5998148918151864 1.8675603866577151 4.4265365600585946 3.2620074748992924 6.8603065013885507 42.384552001953132 2.7890958786010747 2.3228839635849003 1.8707540035247805 7.5435378551483163 2.6003502607345585 7.3030195236206064 36.599151611328132 3.2620074748992924 39.568267822265632 0.63513612747192394
decision_type=2 2 2 2 2 2 2 2 2 2 2 2 2 2 2 2 2 2 2 2 2 2 2 2 2 2 2 2 2 2
left_child=1 6 4 8 14 12 10 13 17 15 -1 -6 19 -5 22 21 -15 -3 27 -4 -7 -8 -2 29 -17 28 -24 -10 -13 -12
right_child=2 3 5 7 11 20 9 -9 18 -11 23 25 -14 16 -16 24 -18 -19 -20 -21 -22 -23 26 -25 -26 -27 -28 -29 -30 -31
leaf_value=-0.0052724601114119037 7.7639341714489881e-05 -0.0023580528037072932 0.0036426202265821663 -0.0011740506784558569 0.002084521851457449 0.0046170288960168593 -0.0043252123857385845 0.001100940636241246 -0.0016563816779245717 -0.0017312719707839961 -0.0053555898070802152 0.0025778316752215155 0.0054701864883405817 -0.00052249592733914297 0.0020966482343280713 -0.003342997017169955 0.00024330257576850282 -0.001570984298289317 2.3375405726184057e-05 0.0044605101301198264 0.0058898235283950983 -0.0033435683480353925 0.00082539324105164241 -0.003310304314719726 -0.0025303796142653059 0.0042794748695561789 0.0015944040840844449 -0.00092923666194727841 0.0033778116728393108 -0.0040910120204667739
leaf_weight=5243 3262 11870 10921 5885 10291 2178 3690 4431 6816 3938 1276 6954 2770 16508 3752 6258 11435 12614 2691 9139 14529 14867 10445 4270 10247 1363 5247 8383 4735 8733
leaf_count=5243 3262 11870 10921 5885 10291 2178 3690 4431 6816 3938 1276 6954 2770 16508 3752 6258 11435 12614 2691 9139 14529 14867 10445 4270 10247 1363 5247 8383 4735 8733
internal_value=-3.25926e-06 -0.00200072 0.00324442 -0.000926462 0.00187468 0.00483968 -0.00348082 -0.000205817 -0.0015771 -0.00306021 -0.00432091 0.0026224 0.00419218 -0.000377012 0.00110589 -0.00320941 -0.000209114 -0.00195264 -0.00106307 0.00401544 0.00572418 -0.00353899 0.000909672 -0.00397117 -0.00283867 0.0030463 0.00108262 -0.00125541 0.00290215 -0.00425275
internal_weight=224741 139155 85586 80633 46049 39537 58522 38259 42374 39000 19522 23343 22830 33828 22706 35062 27943 24484 17890 20060 16707 18557 18954 14279 16505 13052 15692 15199 11689 10009
internal_count=224741 139155 85586 80633 46049 39537 58522 38259 42374 39000 19522 23343 22830 33828 22706 35062 27943 24484 17890 20060 16707 18557 18954 14279 16505 13052 15692 15199 11689 10009
is_linear=0
shrinkage=0.05


Tree=27
num_leaves=31
num_cat=0
split_feature=0 1 0 0 1 1 0 3 3 0 3 3 3 3 1 3 1 1 3 3 3 3 3 3 3 1 1 3 3 3
split_gain=528.054 80.1488 67.2366 12.6123 12.0793 9.91023 5.15287 3.94718 2.97544 2.55825 2.03347 1.79886 1.68981 1.68622 1.65795 1.56028 1.48385 1.40286 1.08 1.04345 0.947695 0.910545 0.86531 0.844027 0.829177 0.823087 0.800997 0.781513 0.766433 0.729593
threshold=35.398712158203132 3.0008304119110112 39.814971923828132 42.739288330078132 1.5442542433738711 4.1101925373077401 37.061431884765632 5.6716425418853769 2.7678723335266118 45.369415283203132 3.5786021947860722 4.5435557365417489 5.2660069465637216 3.9246349334716801 0.57420718669891369 2.2721518278121953 2.3152072429656987 3.3946511745452885 6.3810992240905771 2.747848749160767 1.4620893597602846 6.2852764129638681 1.8707540035247805 2.1456238031387334 6.3810992240905771 4.5641016960144052 2.3152072429656987 6.7466571331024179 1.9558723568916323 1.6598799228668215
decision_type=2 2 2 2 2 2 2 2 2 2 2 2 2 2 2 2 2 2 2 2 2 2 2 2 2 2 2 2 2 2
left_child=1 4 6 11 7 10 17 14 26 12 20 28 23 29 -1 -8 -10 -2 -18 -19 -3 25 -16 -5 -12 -17 -6 -15 -4 -7
right_child=2 5 3 9 8 13 15 -9 16 -11 24 -13 -14 27 22 21 18 19 -20 -21 -22 -23 -24 -25 -26 -27 -28 -29 -30 -31
leaf_value=-0.0055636169650612518 -0.00088248510379155621 -0.0022094484133502613 0.0024157304933254522 0.0034738855831105693 -0.0035133842381684568 -0.00097071192762906869 0.001233626183542386 -0.0031576378837152468 -0.0025694810865582647 0.0058299869950945256 -0.00094641365799066782 0.0040824823157419449 0.0055919218818447011 0.0002926657629819902 -0.0048125314257186748 0.00046813039719684939 -0.0020347467809695599 0.00036677146741758126 -0.00095821346948905513 0.0012685298995333319 -0.0013747913945458311 0.0030552338667797904 -0.0039140038080296841 0.0046336524519156267 9.1442666071831028e-05 0.0021905095450451065 -0.0027249780362430176 0.0015293592745832191 0.0033405951577819646 -0.00016107327553658803
leaf_weight=2191 1043 4224 2830 1901 5923 3518 4593 13940 10992 8815 16407 8340 4454 11205 3391 731 9738 4495 3066 11212 17524 3049 13240 9452 2180 13797 7135 1441 11002 13298
leaf_count=2191 1043 4224 2830 1901 5923 3518 4593 13940 10992 8815 16407 8340 4454 11205 3391 731 9738 4495 3066 11212 17524 3049 13240 9452 2180 13797 7135 1441 11002 13298
internal_value=1.8405e-06 -0.00189691 0.00309013 0.00436726 -0.00309732 -0.000699598 0.00155455 -0.00379591 -0.0024762 0.00514634 -0.00120878 0.00350189 0.00476476 -2.48108e-06 -0.00426844 0.00205462 -0.00214319 0.000892586 -0.00177706 0.00101051 -0.001537 0.00226907 -0.00409749 0.00443978 -0.000824689 0.00210388 -0.00308283 0.000433696 0.00315156 -0.000330502
internal_weight=225127 139413 85714 46794 69616 69797 38920 32762 36854 24622 40335 22172 15807 29462 18822 22170 23796 16750 12804 15707 21748 17577 16631 11353 18587 14528 13058 12646 13832 16816
internal_count=225127 139413 85714 46794 69616 69797 38920 32762 36854 24622 40335 22172 15807 29462 18822 22170 23796 16750 12804 15707 21748 17577 16631 11353 18587 14528 13058 12646 13832 16816
is_linear=0
shrinkage=0.05


Tree=28
num_leaves=31
num_cat=0
split_feature=1 0 1 0 1 1 0 3 3 3 0 3 3 3 1 3 3 1 1 3 3 3 3 1 3 3 3 3 0 3
split_gain=477.3 69.3701 65.7048 11.9018 11.1322 6.22226 6.20478 3.08925 2.69283 2.49822 2.16837 1.80659 1.6191 1.55594 1.54298 1.51437 1.46143 1.53094 1.39564 1.34791 1.0638 0.963305 0.96243 0.810482 0.737064 0.722146 0.710708 0.697705 0.672795 0.629119
threshold=4.7923371791839608 39.690948486328132 2.5376266241073613 42.853546142578132 3.5865625143051152 1.0446596145629885 36.775299072265632 5.17779564857483 8.2976913452148455 5.7827610969543466 45.543731689453132 5.4269068241119394 4.0490522384643564 5.0333178043365487 0.49634730815887457 1.8416164517402651 1.7231571674346926 1.6988877058029177 4.1863157749176034 3.3076648712158208 8.0824923515319842 2.2982618808746342 7.2346596717834482 3.1894936561584477 2.2486016750335698 1.6915842294692995 6.8013901710510263 1.782021760940552 41.439483642578132 5.9019868373870858
decision_type=2 2 2 2 2 2 2 2 2 2 2 2 2 2 2 2 2 2 2 2 2 2 2 2 2 2 2 2 2 2
left_child=2 6 5 11 9 14 19 18 16 15 13 21 27 24 -1 -4 -7 29 25 -2 -16 -3 -9 -17 -5 -6 -21 -8 -23 -18
right_child=1 3 4 10 7 8 12 22 -10 -11 -12 -13 -14 -15 20 23 17 -19 -20 26 -22 28 -24 -25 -26 -27 -28 -29 -30 -31
leaf_value=-0.0054807591251504256 0.00027254687515566471 0.0024352192703001908 -0.0024731455176142357 0.0033772039270017541 -0.001630528940842584 -0.0037507819602038994 0.00089556677348062307 0.00019648516629448354 -0.0016311747655097892 -0.00054375197535544775 0.0055939710716540704 0.0041248336322918322 0.0024524259314285587 0.0053035092771531716 -0.0041342392295774305 -0.001857940931804823 -0.0034364421651259347 -0.0024901219822213785 -0.00026293957424253483 0.00094757559264288754 -0.0029795365742716455 0.0029820182438878426 0.0015783975876480626 -0.0012920948681143039 0.0044376312943457457 -0.00077410898531723505 0.002213340855456207 0.0017724695469178387 0.0036766224725753799 -0.0028360410480528608
leaf_weight=1774 9207 4239 6047 2043 2907 5752 2921 6890 3873 4861 7920 5598 8864 5045 9943 13506 10599 13951 15246 10145 2512 7767 1541 11934 8684 16076 1245 10204 6398 7496
leaf_count=1774 9207 4239 6047 2043 2907 5752 2921 6890 3873 4861 7920 5598 8864 5045 9943 13506 10599 13951 15246 10145 2512 7767 1541 11934 8684 16076 1245 10204 6398 7496
internal_value=-1.00617e-06 0.00281292 -0.00188409 0.00412258 -0.000955913 -0.00319591 0.00134612 -0.000408057 -0.00288749 -0.00159888 0.00491771 0.00333755 0.00193023 0.00457778 -0.00409886 -0.00176175 -0.00301618 -0.00288421 -0.000619222 0.000722475 -0.00390161 0.00309787 0.000449225 -0.00159256 0.004236 -0.000905338 0.00108611 0.0015774 0.00329599 -0.00318789
internal_weight=225188 90280 134908 47694 79008 55900 42586 42660 41671 36348 23692 24002 21989 15772 14229 31487 37798 32046 34229 20597 12455 18404 8431 25440 10727 18983 11390 13125 14165 18095
internal_count=225188 90280 134908 47694 79008 55900 42586 42660 41671 36348 23692 24002 21989 15772 14229 31487 37798 32046 34229 20597 12455 18404 8431 25440 10727 18983 11390 13125 14165 18095
is_linear=0
shrinkage=0.05


Tree=29
num_leaves=31
num_cat=0
split_feature=0 1 0 1 1 0 0 3 3 1 3 3 1 3 3 3 3 1 3 1 3 0 3 3 3 3 1 3 1 0
split_gain=430.877 65.2135 54.7595 9.08752 8.79821 8.09211 6.3947 2.72456 2.50577 1.83243 1.82211 1.69898 1.69672 1.61938 1.51363 1.28699 1.20538 1.12726 0.970135 0.899658 0.886574 0.878037 0.762525 0.744201 0.734406 0.731879 0.723997 0.717887 0.689197 0.678081
threshold=35.398712158203132 2.8850357532501225 40.870880126953132 3.9851927757263188 1.335671663284302 38.276153564453132 44.126495361328132 2.891876339912415 6.8603065013885507 2.1673169136047368 7.2346596717834482 1.9832653999328616 4.1614565849304208 3.1308588981628422 2.3955122232437138 5.984682798385621 2.4425982236862187 3.5013817548751835 7.3794679641723642 4.5094413757324228 6.1944315433502206 42.384552001953132 1.6598799228668215 2.0928655862808232 7.3794679641723642 4.2023067474365243 2.2831468582153325 1.6915842294692995 0.73431849479675304 45.914581298828132
decision_type=2 2 2 2 2 2 2 2 2 2 2 2 2 2 2 2 2 2 2 2 2 2 2 2 2 2 2 2 2 2
left_child=1 4 5 11 7 12 10 -1 9 27 16 -3 24 -5 -14 23 -4 -13 28 -15 -16 -18 -11 -7 -2 29 -10 -6 -9 -8
right_child=2 3 6 13 8 15 25 18 26 22 -12 17 14 19 20 -17 21 -19 -20 -21 -22 -23 -24 -25 -26 -27 -28 -29 -30 -31
leaf_value=-0.0044051457115140535 -0.00058095916736629588 -0.0018981335829690573 0.0027944136400387611 -0.0005121999485802138 -0.0036629373408143826 0.0015772349502894 0.0042007926363686193 -0.0044285655947002593 -0.0019095793953203392 -0.0028858612619129852 0.0050681688667294231 -0.0013248960269867137 0.00048890892559241145 -0.00013789212121028636 0.0012725697121948429 0.0033486207692725264 0.0033582279180325858 -0.00073438510420906255 -0.0027241073432764211 0.00052716293330892002 0.0021868521061850373 0.0040753604129843369 -0.0020412667350965365 0.0024123710596850394 0.0014283191174923387 0.0052612370065989499 -0.00085522424751328582 -0.0027919625444999805 -0.0033517936919464837 0.0054655494249162394
leaf_weight=6961 2018 7130 4407 13172 2926 3365 4096 1710 4413 3325 2131 17090 5582 10027 15941 3128 8445 15342 6035 10316 3183 8739 13776 13024 586 9437 2584 12659 11939 1452
leaf_count=6961 2018 7130 4407 13172 2926 3365 4096 1710 4413 3325 2131 17090 5582 10027 15941 3128 8445 15342 6035 10316 3183 8739 13776 13024 586 9437 2584 12659 11939 1452
internal_value=-2.26424e-06 -0.00171639 0.00279144 -0.000686093 -0.0028515 0.00164118 0.00418293 -0.00355434 -0.0023795 -0.00256336 0.00367177 -0.00119928 0.00108547 -8.02975e-05 0.00121341 0.00241869 0.00353372 -0.00104559 -0.00325326 0.000199369 0.00142485 0.00372314 -0.00220564 0.00224101 -0.00012842 0.00499184 -0.00152038 -0.00295571 -0.00348701 0.00453272
internal_weight=224939 139405 85534 73077 66328 46827 38707 26645 39683 32686 23722 39562 27310 33515 24706 19517 21591 32432 19684 20343 19124 17184 17101 16389 2604 14985 6997 15585 13649 5548
internal_count=224939 139405 85534 73077 66328 46827 38707 26645 39683 32686 23722 39562 27310 33515 24706 19517 21591 32432 19684 20343 19124 17184 17101 16389 2604 14985 6997 15585 13649 5548
is_linear=0
shrinkage=0.05


Tree=30
num_leaves=31
num_cat=0
split_feature=1 1 0 1 0 1 0 3 3 3 3 3 3 1 1 3 3 0 3 3 3 0 1 1 3 1 3 3 3 0
split_gain=389.145 59.7149 48.4803 9.00349 7.52526 6.92447 5.42882 2.45015 2.3378 2.31223 2.22344 1.67414 1.59502 1.34827 1.27936 1.26386 1.11577 1.11158 0.995607 0.899689 0.879526 0.790956 0.726879 0.673821 0.611523 0.609398 0.597817 0.581672 0.563 0.558152
threshold=4.973595619201661 2.7687258720397954 40.982574462890632 3.8699059486389165 38.276153564453132 1.335671663284302 44.287384033203132 2.8312091827392583 4.7958796024322519 5.9019868373870858 6.5801689624786386 7.6251168251037607 5.17779564857483 3.3074849843978886 2.126947402954102 3.9870434999465947 2.4192498922348027 36.684844970703132 1.8120746016502383 6.9780552387237558 7.5435378551483163 42.384552001953132 4.4544095993042001 0.84990227222442638 1.6598799228668215 2.2831468582153325 1.7231571674346926 1.782021760940552 1.5632573962211611 45.724517822265632
decision_type=2 2 2 2 2 2 2 2 2 2 2 2 2 2 2 2 2 2 2 2 2 2 2 2 2 2 2 2 2 2
left_child=1 5 4 9 12 7 11 -1 18 13 14 16 17 26 27 -6 -4 -2 -5 -10 23 -18 -20 -9 -15 -12 -3 -7 -16 -8
right_child=2 3 6 8 15 10 29 20 19 -11 25 -13 -14 24 28 -17 21 -19 22 -21 -22 -23 -24 -25 -26 -27 -28 -29 -30 -31
leaf_value=-0.0041980667382174345 0.00053968965097042003 -0.0023584328264891971 0.0026986046264830393 -0.0010011697917851881 0.00199226862584931 -0.0034743812995325649 0.0044636768137497427 -0.0040096497505239517 0.00030815127516089971 -0.00010518821835052821 -0.001856449460621985 0.0050471235155401225 0.0017900571420442829 -0.0017552994993805177 -0.0028462564522888575 0.0027996143486486219 0.0032311141782214122 0.0012649631149164481 -0.00046730321144874357 0.0015364453545514837 -0.0025596441887754833 0.0039038500277223578 0.00012353904961654054 -0.0031348903498906993 -0.00095762237509959634 -0.00088988808483271347 -0.0015383433701747148 -0.0026842587378026802 -0.0020352443589359737 0.0050982572293091187
leaf_weight=6755 11887 2691 4274 4987 11138 2956 7011 2738 8373 4323 4972 1720 5911 2775 2617 8608 8018 9512 12257 1813 5556 9738 9047 11596 17965 2431 12872 11267 11937 7075
leaf_count=6755 11887 2691 4274 4987 11138 2956 7011 2738 8373 4323 4972 1720 5911 2775 2617 8608 8018 9512 12257 1813 5556 9738 9047 11596 17965 2431 12872 11267 11937 7075
internal_value=1.52944e-06 -0.00161874 0.00267222 -0.000686357 0.00160074 -0.002763 0.00400473 -0.00337476 -0.000116144 -0.00119832 -0.00231239 0.00354312 0.00106302 -0.00132849 -0.00251123 0.00234434 0.00342547 0.000862123 -0.000365292 0.000526904 -0.00309495 0.00360026 -0.000216401 -0.00330225 -0.00106443 -0.00153921 -0.00168029 -0.0028487 -0.00218126 0.00478275
internal_weight=224820 139928 84892 77103 47056 62825 37836 26645 36477 40626 36180 23750 27310 36303 28777 19746 22030 21399 26291 10186 19890 17756 21304 14334 20740 7403 15563 14223 14554 14086
internal_count=224820 139928 84892 77103 47056 62825 37836 26645 36477 40626 36180 23750 27310 36303 28777 19746 22030 21399 26291 10186 19890 17756 21304 14334 20740 7403 15563 14223 14554 14086
is_linear=0
shrinkage=0.05


Tree=31
num_leaves=31
num_cat=0
split_feature=0 1 0 1 0 1 0 3 3 3 3 1 3 3 3 4 3 3 1 3 3 0 3 3 3 3 3 1 1 0
split_gain=351.771 52.1034 45.5558 8.61751 7.96844 5.83511 3.87991 2.99124 2.20494 1.5944 1.49062 1.44214 1.34485 1.16873 1.11499 1.02431 0.873876 0.792291 0.70795 0.66862 0.656246 0.618043 0.616482 0.596021 0.582845 0.577533 0.575121 0.560464 0.557316 0.556086
threshold=35.314239501953132 3.0576581954956059 39.939361572265632 1.7382147908210757 42.970733642578132 4.1863157749176034 37.152862548828132 5.7455112934112558 4.4068586826324472 3.4791984558105473 3.2684670686721806 0.77114808559417736 5.0058720111846933 3.0523418188095097 3.5390629768371586 43.830131530761726 2.0928655862808232 1.4292606711387636 0.73431849479675304 6.2852764129638681 1.8120746016502383 45.914581298828132 7.5435378551483163 8.6782679557800311 1.5328068733215334 6.5801689624786386 6.1537237167358407 2.4152669906616215 3.5434386730194096 44.465972900390632
decision_type=2 2 2 2 2 2 2 2 2 2 2 2 2 2 2 2 2 2 2 2 2 2 2 2 2 2 2 2 2 2
left_child=1 3 6 7 12 10 15 11 17 21 -3 -1 20 -8 -7 16 -2 -5 -9 28 -4 -6 -15 -10 -13 -16 -18 -19 -12 -11
right_child=2 5 4 8 9 14 13 18 23 29 19 24 -14 22 25 -17 26 27 -20 -21 -22 -23 -24 -25 -26 -27 -28 -29 -30 -31
leaf_value=-0.0042281067897415028 4.0040034327289407e-05 -0.0012658121652684238 0.0019268455954619048 -0.0028252029732618311 0.0033976851647037651 -0.00031807317616949391 0.0012582066926605483 -0.0035202511516710128 -0.0015543421714313979 0.004112597665971717 -0.0010652335588147435 -0.0039143808961470943 0.0035213206204883539 0.0019094073856870666 0.00021605329187450797 -0.00073616549543092718 0.00085426547947655557 -0.0024213138068740806 -0.0023737596088839854 0.00013937493850759564 0.0028143738979141816 0.0049668555119169065 0.0031206123016578741 -0.00066254570867334782 -0.0030867333737032484 0.0012407412873946865 0.0016861851019220433 -0.001845383711146298 -0.00053116932914146773 0.0047231814712792169
leaf_weight=4265 2843 18674 2465 4398 5679 12733 8256 1499 9592 5883 8387 2490 6732 12771 12011 1093 11966 7032 13619 2337 13788 711 1147 2331 15295 1552 2515 10658 11707 10597
leaf_count=4265 2843 18674 2465 4398 5679 12733 8256 1499 9592 5883 8387 2490 6732 12771 12011 1093 11966 7032 13619 2337 13788 711 1147 2331 15295 1552 2515 10658 11707 10597
internal_value=1.32647e-06 -0.00156004 0.00250431 -0.00250346 0.00358422 -0.000563715 0.0012843 -0.00302977 -0.00192823 0.00424512 -0.000935807 -0.00340132 0.00292648 0.00172981 1.79397e-05 0.000747852 0.000841519 -0.00222405 -0.00248766 -0.000661031 0.00267989 0.00357303 0.00200944 -0.00138006 -0.00320282 0.00033339 0.000998856 -0.00207445 -0.000754123 0.00450548
internal_weight=225026 138580 86446 71179 45855 67401 40591 37168 34011 22870 41105 22050 22985 22174 26296 18417 17324 22088 15118 22431 16253 6390 13918 11923 17785 13563 14481 17690 20094 16480
internal_count=225026 138580 86446 71179 45855 67401 40591 37168 34011 22870 41105 22050 22985 22174 26296 18417 17324 22088 15118 22431 16253 6390 13918 11923 17785 13563 14481 17690 20094 16480
is_linear=0
shrinkage=0.05


Tree=32
num_leaves=31
num_cat=0
split_feature=1 0 1 0 1 1 0 3 3 3 3 3 1 3 3 3 3 1 3 0 3 3 1 3 3 3 0 3 1 3
split_gain=318.08 45.8963 43.6887 7.97407 7.81496 4.10925 4.07404 2.18211 2.01539 1.83154 1.8226 1.24194 1.1253 1.09551 0.943006 0.934909 0.929845 0.949111 0.923841 0.89347 0.839563 0.740803 0.688407 0.659156 0.645974 0.581616 0.53086 0.552906 0.504488 0.484151
